svm_type c_svc
kernel_type linear
nr_class 5
total_sv 61
rho 0.220735 0.00447589 0.0314109 -0.148107 0.00415867 -0.0818707 -0.127491 -0.0210248 -0.167379 -0.122496
label 0 1 2 3 4
probA -2.87644 -2.91242 -2.94617 -2.8997 -2.94311 -2.90581 -2.92152 -2.91502 -2.92917 -2.95286
probB 0.0522691 -0.00564788 0.031104 -0.0287169 0.0700876 -0.0492621 0.0488207 -0.0435381 -0.0459794 -0.0188899
nr_sv 12 15 11 13 10
SV
0 0 0.1622993030163942 0 0:0.027947 1:-0.025763 2:0.018368 3:-0.044474 4:-0.055065 5:0.018412 6:0.003572 7:0.007729 8:-0.012349 9:-0.024731 10:0.055094 11:-0.001015 12:0.085493 13:0.026033 14:0.046053 15:-0.004074 16:-0.038306 17:-0.01466 18:-0.102874 19:0.067216 20:0.006208 21:-0.033363 22:-0.034636 23:-0.024199 24:-0.034516 25:-0.02259 26:-0.027049 27:0.008425 28:-0.018986 29:-0.062307 30:0.070225 31:0.036794 32:-0.029216 33:0.037731 34:-0.069371 35:0.008654 36:0.010297 37:0.046899 38:0.047047 39:-0.054607 40:0.02716 41:-0.017307 42:0.019142 43:-0.004702 44:0.091549 45:0.024007 46:0.018275 47:-0.098819 48:-0.01388 49:-0.0435 50:0.027957 51:-0.003477 52:-0.032478 53:0.044379 54:-0.074474 55:0.011257 56:-0.049156 57:-0.066867 58:-0.021712 59:0.021948 60:0.022063 61:0.028888 62:-0.060903 63:0.048264 64:-0.032142 65:0.048059 66:-0.009778 67:-0.019001 68:0.021946 69:0.042691 70:-0.02729 71:-0.027593 72:-0.008633 73:0.009024 74:-0.007137 75:0.007119 76:-0.056566 77:-0.014307 78:-0.063298 79:-0.078207 80:0.041354 81:0.092826 82:-0.00986 83:-0.05961 84:0.022653 85:-0.00155 86:-0.000234 87:-0.010729 88:-0.006306 89:0.069578 90:-0.017295 91:0.022135 92:0.010721 93:0.021304 94:-0.007373 95:0.014051 96:-0.032473 97:-0.037146 98:0.003244 99:-0.112623 100:-0.002115 101:0.058554 102:0.041015 103:-0.019366 104:0.012787 105:0.012763 106:-0.047091 107:-0.06721 108:-0.152554 109:0.010635 110:-0.065947 111:0.065356 112:-0.028732 113:0.047402 114:0.075989 115:0.023919 116:-0.03111 117:-0.006531 118:-0.010413 119:-0.032119 120:-0.030048 121:0.036651 122:0.006689 123:-0.048673 124:0.010234 125:-0.017739 126:-0.024071 127:-0.023109 128:0.00762 129:-0.071805 130:0.016593 131:0.067513 132:-0.061077 133:0.006706 134:0.057432 135:-0.078222 136:0.016686 137:-0.09473 138:-0.074454 139:-0.024364 140:0.008891 141:0.029415 142:-0.020182 143:0.043188 144:-0.046388 145:-0.044626 146:0.015231 147:0.034808 148:-0.02416 149:0.027465 150:-0.040183 151:-0.072542 152:-0.03912 153:-0.001221 154:0.079749 155:0.034724 156:-0.037089 157:-0.00667 158:0.054375 159:-0.0255 160:0.05156 161:0.006549 162:0.014046 163:-0.061528 164:0.033059 165:-0.042798 166:-0.031676 167:-0.049011 168:0.119843 169:-0.00163 170:-0.065481 171:0.094648 172:-0.050434 173:-0.01284 174:0.002074 175:0.00528 176:0.018511 177:0.018164 178:-0.000587 179:-0.006446 180:0.01748 181:-0.017478 182:-0.029231 183:-0.065835 184:0.01019 185:0.001301 186:0.001522 187:0.006275 188:0.026659 189:-0.033759 190:0.007336 191:-0.030138 192:0.029921 193:0.023685 194:0.009138 195:-0.023096 196:0.048554 197:-0.047274 198:0.02554 199:-0.045242 200:0.060562 201:-0.025429 202:0.042115 203:0.019568 204:-0.023513 205:0.069887 206:-0.039452 207:0.004296 208:0.054865 209:0.031693 210:0.014073 211:0.056847 212:-0.022803 213:-0.027876 214:0.043995 215:-0.090107 216:-0.041389 217:0.025552 218:-0.005014 219:-0.017047 220:0.022252 221:0.041854 222:-0.031178 223:0.03216 224:0.049511 225:-0.054837 226:0.063493 227:0.065444 228:-0.063333 229:-0.011537 230:-0.028901 231:-0.024455 232:0.023008 233:-0.023712 234:0.006551 235:0.055227 236:-0.023807 237:-0.029091 238:0.016196 239:0.041785 240:0.058511 241:0.108815 242:-0.007018 243:0.050382 244:-0.087152 245:-0.047275 246:0.018213 247:0.018088 248:-0.105888 249:0.068997 250:-0.071485 251:0.024703 252:0.005444 253:-0.016583 254:0.041179 255:-0.024829 256:0.007737 257:-0.026818 258:-0.039176 259:0.030206 260:0.030985 261:-0.078655 262:-0.036958 263:-0.021955 264:0.009417 265:0.043445 266:-0.001207 267:-0.020897 268:0.004389 269:-0.041439 270:-0.014466 271:-0.029098 272:0.070375 273:0.008012 274:0.104216 275:0.028535 276:0.003378 277:-0.057635 278:-0.010706 279:-0.034099 280:-0.1186 281:0.007769 282:0.021907 283:-0.033665 284:0.009765 285:0.046635 286:0.047627 287:0.016123 288:-0.028286 289:-0.047118 290:0.026655 291:0.093532 292:-0.019942 293:0.017089 294:0.021539 295:0.00424 296:0.047393 297:-0.002303 298:-0.006105 299:-0.023446 300:0.031523 301:0.018364 302:0.005879 303:-0.091001 304:0.04669 305:0.016813 306:-0.053349 307:-0.018302 308:0.055113 309:0.017372 310:0.04647 311:-0.015212 312:0.031628 313:0.031708 314:0.012764 315:-0.0986 316:-0.037866 317:0.036406 318:-0.024515 319:0.062396 320:-0.054572 321:-0.072671 322:-0.040411 323:-0.002591 324:0.028312 325:-0.048205 326:0.023107 327:0.021869 328:-0.009102 329:-0.017351 330:-0.032373 331:-0.064511 332:-0.027428 333:-0.00754 334:0.017324 335:-0.000689 336:0.023129 337:-0.089113 338:0.079365 339:0.039615 340:-0.015309 341:-0.084357 342:0.036969 343:-0.01867 344:0.035443 345:-0.019026 346:0.062884 347:-0.01563 348:-0.041632 349:0.082343 350:0.044941 351:0.015097 352:0.042197 353:0.018591 354:0.046615 355:0.070908 356:-0.004222 357:-0.071438 358:-0.040587 359:0.012994 360:0.021011 361:-0.070059 362:0.008361 363:0.007131 364:0.017625 365:-0.004971 366:0.040585 367:0.067652 368:0.030074 369:-0.056418 370:0.043854 371:-0.044669 372:0.071257 373:0.020124 374:0.004739 375:0.024596 376:0.072018 377:-0.05169 378:-0.028225 379:-0.014485 380:0.011213 381:-0.050569 382:0.037453 383:-0.059154 384:-0.054696 385:-0.025437 386:0.017661 387:0.015164 388:-0.000851 389:-0.066626 390:0.008266 391:-0.004749 392:-0.052066 393:0.020431 394:-0.018844 395:0.07899 396:-0.005069 397:0.046247 398:-0.063762 399:0.011639 400:-0.03538 401:0.018605 402:0.091698 403:-0.031259 404:-0.056821 405:0.006942 406:0.041559 407:0.052552 408:0.001005 409:-0.056566 410:0.044468 411:0.005949 412:0.053551 413:-0.006194 414:-0.033192 415:0.043486 416:-0.065056 417:-0.018863 418:0.023678 419:-0.061774 420:-0.057432 421:0.042323 422:-0.091105 423:-0.019572 424:-0.023841 425:0.000451 426:-0.039135 427:-0.056935 428:0.036225 429:-0.017284 430:-0.024309 431:-0.003775 432:0.022371 433:-0.012597 434:0.044867 435:0.055087 436:0.018876 437:0.034468 438:0.024341 439:-0.033345 440:-0.017482 441:0.026125 442:0.024194 443:-0.020144 444:-0.008176 445:0.002678 446:0.072254 447:-0.036847 448:0.060681 449:0.073666 450:-0.099976 451:-0.048329 452:0.023068 453:-0.027779 454:-0.075715 455:0.081127 456:0.049431 457:0.030463 458:-0.073897 459:-0.037902 460:-0.03219 461:-0.060616 462:0.114768 463:-0.04574 464:-0.044458 465:0.005774 466:-0.059652 467:0.031072 468:-0.055908 469:0.026119 470:0.031221 471:0.013496 472:-0.043729 473:0.015309 474:-0.021825 475:-0.038709 476:0.003346 477:0.022464 478:0.016411 479:-0.07896 480:0.047205 481:-0.068072 482:-0.063756 483:-0.001722 484:0.003181 485:-0.000553 486:0.005808 487:-0.063992 488:0.063711 489:0.030853 490:-0.057969 491:-0.053297 492:0.077798 493:0.022722 494:-0.011547 495:-0.077205 496:0.011333 497:-0.119815 498:0.022881 499:0.029936 500:-0.007524 501:-0.06761 502:-0.074537 503:-0.053175 504:-0.040452 505:0.052101 506:0.064393 507:0.004203 508:0.068377 509:0.010402 510:0.010424 511:0.064773 
0 0 0.08978248433536706 0.1317671072020941 0:0.009702 1:-0.034493 2:-0.000159 3:0.013831 4:-0.061304 5:0.043102 6:-0.011693 7:0.03924 8:-0.070061 9:-0.013058 10:0.078839 11:0.014627 12:0.061199 13:0.037642 14:0.076589 15:0.01533 16:-0.036685 17:0.026828 18:-0.053604 19:0.054818 20:0.043679 21:-0.073882 22:-0.0158 23:0.016512 24:0.018788 25:0.019503 26:0.009671 27:0.033412 28:-0.011818 29:-0.000768 30:0.044307 31:-0.012132 32:-0.062765 33:0.049671 34:-0.123362 35:0.015933 36:0.01494 37:0.06779 38:0.060593 39:-0.036231 40:-0.014595 41:-0.001714 42:-0.013742 43:0.013161 44:0.099263 45:0.043479 46:0.038552 47:-0.08087 48:0.021527 49:-0.020438 50:0.016388 51:-0.027882 52:-0.0251 53:0.028665 54:-0.065769 55:-0.001533 56:-0.056887 57:-0.026498 58:-0.037586 59:0.035449 60:-0.037345 61:0.003767 62:-0.086316 63:0.031189 64:-0.010939 65:0.037025 66:-0.035883 67:-0.03254 68:0.004093 69:0.006844 70:-0.018941 71:-0.009399 72:0.017286 73:-0.004141 74:-0.01241 75:0.051718 76:-0.01072 77:-0.010411 78:-0.051202 79:-0.074701 80:0.037639 81:0.062174 82:0.077692 83:-0.050612 84:0.022721 85:0.031514 86:-0.015323 87:0.017859 88:0.020423 89:0.058347 90:-0.066762 91:0.045103 92:-0.072327 93:0.065674 94:0.024354 95:-0.029977 96:-0.034525 97:-0.06926 98:0.005053 99:-0.036389 100:-0.038342 101:0.049293 102:0.059489 103:-0.016179 104:0.037656 105:-0.011655 106:-0.066809 107:-0.058065 108:-0.099242 109:-0.039554 110:-0.069899 111:0.065441 112:-0.019012 113:0.040331 114:0.07207 115:0.05064 116:-0.049009 117:-0.00306 118:-0.033199 119:-0.030611 120:0.031455 121:0.045886 122:0.058516 123:-0.064376 124:0.028164 125:-0.064577 126:-0.092721 127:0.041055 128:0.055429 129:-0.113651 130:0.059417 131:0.060616 132:-0.053192 133:0.067904 134:0.069507 135:-0.025789 136:0.048245 137:-0.05646 138:-0.099012 139:-0.030593 140:0.024773 141:0.023559 142:-0.026622 143:0.020858 144:-0.020614 145:-0.000416 146:0.018814 147:0.040152 148:0.019703 149:0.020196 150:-0.05904 151:-0.045574 152:0.000567 153:0.011215 154:0.051049 155:0.031266 156:-0.008052 157:0.008524 158:0.015019 159:-0.038047 160:-0.003016 161:0.035852 162:-0.0218 163:-0.016052 164:0.071821 165:-0.016696 166:-0.064193 167:-0.054192 168:0.049807 169:0.008565 170:-0.027727 171:0.062501 172:-0.054943 173:0.02045 174:0.011481 175:-0.014092 176:0.027806 177:-0.029923 178:-0.031121 179:0.049797 180:0.039292 181:0.001165 182:0.030804 183:-0.030714 184:-0.023367 185:-0.084097 186:0.036505 187:-0.008914 188:0.029693 189:-0.075087 190:-0.001335 191:0.008564 192:0.059655 193:0.004803 194:0.011495 195:0.020236 196:0.004782 197:-0.014915 198:0.010227 199:0.019441 200:0.063855 201:-0.014363 202:0.055731 203:0.053825 204:0.014665 205:0.094759 206:-0.025054 207:0.013209 208:0.028385 209:-0.041952 210:0.032546 211:0.02384 212:-0.008349 213:0.007461 214:0.04248 215:-0.098135 216:-0.021374 217:0.04018 218:0.03732 219:-0.048713 220:0.002498 221:0.026731 222:0.018022 223:-0.033451 224:0.040632 225:-0.01923 226:0.038186 227:0.11565 228:-0.056165 229:-0.004408 230:-0.068945 231:0.036806 232:-0.022516 233:0.022206 234:0.025048 235:0.042302 236:-0.007611 237:-0.034833 238:-0.02128 239:0.031945 240:-0.049943 241:0.115153 242:0.032778 243:0.104633 244:-0.011533 245:0.023906 246:-0.049073 247:0.019506 248:-0.065516 249:0.09312 250:-0.051826 251:0.058458 252:0.017647 253:-0.01373 254:0.011605 255:-0.035395 256:-0.003445 257:-0.006607 258:-0.021797 259:-0.015864 260:0.004692 261:-0.101137 262:-0.049755 263:0.018577 264:-0.051236 265:0.00574 266:0.042709 267:-0.092364 268:-0.021543 269:0.004798 270:-0.069419 271:-0.044896 272:0.033671 273:0.02888 274:0.048678 275:-0.00287 276:-0.04286 277:-0.054865 278:-0.032559 279:-0.010558 280:-0.129572 281:-0.01662 282:-0.04008 283:-0.01993 284:0.023484 285:0.075862 286:0.082207 287:-0.029122 288:-0.028897 289:-0.066575 290:0.070627 291:0.053443 292:-0.015959 293:0.051971 294:0.000403 295:-0.022654 296:0.03783 297:0.018617 298:-0.020437 299:0.003039 300:0.02558 301:-0.009386 302:-0.006388 303:-0.041787 304:0.044893 305:0.016828 306:-0.105718 307:0.064566 308:0.02905 309:-0.004924 310:0.034747 311:-0.00172 312:0.018994 313:0.026694 314:0.012456 315:-0.008535 316:0.020488 317:-0.025646 318:0.014422 319:0.072079 320:-0.038938 321:-0.027762 322:-0.068719 323:-0.027735 324:0.034521 325:0.018626 326:0.044516 327:0.028162 328:0.002652 329:-0.026581 330:0.004448 331:-0.075789 332:-0.037091 333:-0.009736 334:0.053798 335:-0.011422 336:0.026094 337:-0.016734 338:0.004765 339:0.013561 340:-0.016101 341:-0.03327 342:0.05004 343:0.025108 344:0.044593 345:0.006595 346:0.067764 347:0.03756 348:-0.019517 349:0.045659 350:0.065882 351:0.017996 352:-0.00268 353:0.006188 354:0.069276 355:0.08604 356:-0.036239 357:-0.065986 358:-0.07415 359:0.005273 360:0.055323 361:-0.06717 362:0.025811 363:0.007086 364:0.022221 365:-0.041848 366:0.049092 367:0.021548 368:0.017934 369:-0.03967 370:0.042314 371:-0.021734 372:0.114825 373:-0.038845 374:-0.007439 375:0.003573 376:0.080277 377:-0.041839 378:6.6e-05 379:-0.063284 380:-0.000794 381:-0.059811 382:0.036091 383:-0.019495 384:-0.038473 385:-0.065209 386:-0.02013 387:-0.02539 388:-0.037802 389:-0.058402 390:-0.00188 391:0.01385 392:0.005327 393:-0.0534 394:-0.004654 395:0.074834 396:-0.014162 397:0.014707 398:-0.046215 399:0.034994 400:-0.020889 401:0.031177 402:0.108465 403:-0.033442 404:-0.045526 405:0.011875 406:0.085909 407:0.057708 408:0.02088 409:0.015752 410:0.041459 411:-0.031533 412:0.044736 413:-0.003493 414:-0.027703 415:0.033214 416:-0.042509 417:-0.053498 418:0.037853 419:-0.054023 420:0.003775 421:0.001627 422:-0.092397 423:-0.056789 424:-0.074709 425:0.002938 426:-0.033736 427:-0.037918 428:0.0744 429:-0.01934 430:0.061898 431:0.015888 432:0.011155 433:0.023419 434:0.043102 435:0.054576 436:-0.000235 437:-0.012291 438:0.027604 439:-0.051094 440:-0.030871 441:0.044602 442:-0.005912 443:0.013945 444:-7.1e-05 445:0.010421 446:0.026258 447:-0.002901 448:0.077543 449:0.061919 450:-0.044762 451:-0.025729 452:0.002756 453:0.005602 454:0.021447 455:0.095618 456:0.043955 457:0.029345 458:-0.027508 459:-0.018225 460:-0.004197 461:-0.043612 462:0.074548 463:-0.057948 464:-0.011927 465:-0.013749 466:-0.073997 467:0.05718 468:-0.052608 469:0.051431 470:-0.014608 471:-0.013048 472:-0.012417 473:-0.011706 474:-0.014139 475:-0.048708 476:-0.006777 477:0.039088 478:-0.024915 479:-0.055254 480:0.038891 481:-0.073844 482:-0.058118 483:-0.006599 484:-0.021769 485:0.03866 486:-0.012262 487:-0.034025 488:0.050501 489:0.070173 490:-0.059968 491:-0.024845 492:0.024514 493:0.064433 494:-0.01084 495:-0.069146 496:0.005245 497:-0.053402 498:0.055032 499:0.021791 500:0.022334 501:-0.048847 502:-0.028503 503:-0.083967 504:-0.007036 505:0.00663 506:0.049413 507:0.078559 508:0.035648 509:0.049237 510:0.048865 511:0.032173 
0 0.1683835730391084 0 0 0:-0.00397 1:-0.03443 2:0.030687 3:0.03151 4:-0.02954 5:0.066096 6:0.018226 7:-0.014134 8:-0.028964 9:-0.046273 10:0.080444 11:-0.00153 12:0.09245 13:0.027324 14:0.086055 15:0.014498 16:-0.015763 17:0.011332 18:-0.041811 19:0.038419 20:-0.011979 21:-0.074184 22:0.005456 23:0.008068 24:-0.028629 25:0.024872 26:0.013022 27:0.048312 28:0.009657 29:0.013782 30:0.04124 31:0.003335 32:-0.063247 33:-0.001276 34:-0.10605 35:-0.008257 36:0.050524 37:0.09866 38:0.028068 39:-0.056753 40:0.042559 41:-0.012051 42:-0.00513 43:-0.00114 44:0.11305 45:-0.018228 46:0.049146 47:-0.064047 48:-0.019931 49:-0.04252 50:-0.009291 51:0.020978 52:-0.054802 53:-0.00217 54:-0.091416 55:-0.001745 56:-0.050014 57:-0.023045 58:-0.001889 59:0.080347 60:0.017546 61:-0.032877 62:-0.050122 63:0.010698 64:-0.028669 65:0.062537 66:-0.00982 67:-0.045321 68:-0.046567 69:0.027804 70:-0.014203 71:0.025389 72:0.01729 73:-0.007951 74:-0.013232 75:0.008705 76:-0.013061 77:-0.016602 78:-0.044986 79:-0.069758 80:0.032472 81:0.067835 82:0.028992 83:-0.039745 84:0.037726 85:-0.000178 86:-0.006052 87:0.043016 88:-0.001347 89:0.033609 90:-0.028065 91:-0.008877 92:-0.040932 93:0.064529 94:0.029574 95:-0.051467 96:-0.006159 97:-0.046264 98:0.018146 99:-0.063585 100:-0.041729 101:-0.005128 102:0.006505 103:0.005041 104:0.022668 105:0.016873 106:-0.067362 107:-0.031561 108:-0.083242 109:0.004895 110:-0.060991 111:0.088665 112:-0.071738 113:0.037735 114:0.102509 115:0.043818 116:-0.030709 117:-0.026596 118:0.00304 119:-0.025089 120:0.03999 121:0.063109 122:0.038884 123:-0.083101 124:0.026588 125:-0.064077 126:-0.059308 127:0.034414 128:0.0307 129:-0.06432 130:0.052844 131:0.037167 132:0.009703 133:0.075466 134:0.00202 135:-0.058592 136:0.005971 137:-0.073995 138:-0.05445 139:-0.022886 140:0.023781 141:0.028183 142:0.01206 143:0.078772 144:-0.044169 145:-0.023112 146:0.027234 147:0.019495 148:-0.00576 149:0.00517 150:-0.051928 151:-0.028476 152:0.011279 153:-0.018686 154:0.055238 155:-0.009831 156:-0.034651 157:-0.017991 158:0.054233 159:-0.007451 160:0.027034 161:0.023429 162:0.025656 163:-0.018026 164:0.033922 165:-0.000213 166:-0.044731 167:-0.084694 168:0.094721 169:0.01263 170:-0.015306 171:0.08455 172:-0.016881 173:-0.017104 174:0.002244 175:-0.000991 176:0.049204 177:-0.024269 178:0.032066 179:0.020867 180:0.026019 181:-0.000456 182:-0.007618 183:-0.044524 184:-0.020789 185:-0.055345 186:-0.000951 187:0.022873 188:0.033951 189:-0.061883 190:-0.01579 191:-0.020538 192:0.031829 193:-0.003663 194:0.019099 195:0.000431 196:0.049932 197:-0.034579 198:-0.000676 199:-0.011751 200:0.079971 201:-0.064205 202:0.055348 203:0.012034 204:-0.044924 205:0.104356 206:-0.033584 207:0.006674 208:0.034968 209:-0.051089 210:0.001617 211:0.008295 212:-0.010778 213:-0.003679 214:0.076541 215:-0.090124 216:-0.026043 217:0.044941 218:-0.009434 219:-0.001243 220:-0.010556 221:-0.011413 222:-0.06473 223:-0.069458 224:0.002639 225:-0.022541 226:0.077243 227:0.10429 228:-0.070846 229:-0.030267 230:-0.072385 231:0.024516 232:-0.005914 233:-0.011866 234:-0.02761 235:0.090396 236:0.023727 237:-0.008583 238:-0.02916 239:0.008046 240:-0.001282 241:0.106577 242:0.013688 243:0.069762 244:-0.023673 245:-0.015243 246:-0.007464 247:0.025184 248:-0.124764 249:0.079919 250:-0.029471 251:0.049915 252:0.007332 253:-0.005244 254:-0.001232 255:0.008608 256:-0.031849 257:-0.03878 258:-0.014907 259:0.000879 260:0.018247 261:-0.101615 262:-0.050083 263:0.021958 264:-0.023353 265:0.050056 266:0.031283 267:-0.051803 268:-0.002507 269:-0.034555 270:-0.019195 271:0.003028 272:0.06421 273:0.034718 274:0.045364 275:-0.037241 276:-0.038689 277:-0.035916 278:0.000809 279:-0.032108 280:-0.110639 281:-0.00075 282:-0.006929 283:-0.024712 284:0.028869 285:0.036748 286:0.066603 287:0.019279 288:-0.014799 289:-0.11378 290:0.059937 291:0.033365 292:-0.026556 293:0.066366 294:0.022335 295:0.012297 296:0.027762 297:0.029016 298:0.032079 299:-0.025505 300:0.061279 301:-0.013228 302:0.026497 303:-0.070719 304:0.026074 305:0.03212 306:-0.081759 307:0.044726 308:0.038929 309:0.045181 310:0.086132 311:0.011923 312:0.04979 313:0.032113 314:-0.007512 315:-0.018129 316:0.007656 317:0.027496 318:-0.056546 319:0.041482 320:-0.035537 321:-0.046213 322:-0.068578 323:0.022555 324:0.021387 325:-0.034389 326:0.020491 327:0.044522 328:0.038735 329:-0.026412 330:0.002885 331:-0.081495 332:0.005547 333:-0.021696 334:0.018738 335:-0.024695 336:0.027471 337:-0.027674 338:0.052236 339:0.050954 340:-0.008914 341:-0.074872 342:0.003744 343:0.043283 344:0.031319 345:-0.041245 346:0.024802 347:-0.00214 348:-0.029622 349:0.03445 350:0.067186 351:-0.000338 352:0.011291 353:0.016433 354:0.028202 355:0.115674 356:0.006559 357:-0.048865 358:-0.034732 359:0.038847 360:0.001055 361:-0.02229 362:-0.002562 363:-0.008205 364:-0.032577 365:-0.021583 366:0.008518 367:0.006654 368:0.035867 369:-0.024099 370:0.062558 371:-0.021828 372:0.062 373:0.011055 374:0.061887 375:0.001177 376:0.117716 377:-0.061219 378:0.002902 379:-0.070891 380:-0.01767 381:-0.053311 382:0.020521 383:-0.034337 384:-0.020982 385:-0.037774 386:0.006002 387:-0.015483 388:0.006737 389:-0.10546 390:0.032308 391:0.009174 392:-0.010733 393:-0.037079 394:-0.010942 395:0.051114 396:0.029889 397:0.04541 398:-0.072336 399:0.019995 400:-0.049738 401:0.073772 402:0.094582 403:-0.00012 404:-0.071231 405:-0.015074 406:0.063784 407:0.011627 408:0.006482 409:0.014739 410:0.065045 411:-0.015533 412:0.019517 413:-0.007623 414:0.028841 415:0.0622 416:-0.10027 417:-0.005229 418:0.028646 419:-0.057002 420:0.003723 421:-0.01216 422:-0.051757 423:-0.026617 424:-0.102866 425:0.008983 426:-0.048514 427:-0.034411 428:0.014608 429:0.004681 430:0.002596 431:0.039311 432:0.009148 433:0.040959 434:-0.000386 435:0.068634 436:-0.017295 437:0.025188 438:0.037136 439:-0.008584 440:-0.024233 441:0.06588 442:0.016864 443:-0.021959 444:-0.002218 445:-0.024786 446:0.045772 447:-0.040149 448:0.069904 449:0.101688 450:-0.088819 451:-0.066312 452:-0.010578 453:-0.013618 454:0.021916 455:0.105106 456:0.04589 457:0.016374 458:-0.076341 459:-0.042473 460:-0.006492 461:-0.059603 462:0.072277 463:-0.024564 464:-0.011379 465:-0.046608 466:-0.052386 467:0.043923 468:-0.044113 469:0.028046 470:0.011878 471:-0.049046 472:-0.027668 473:-0.013061 474:-0.003668 475:-0.012566 476:0.048485 477:0.055847 478:-0.013271 479:-0.024594 480:0.034678 481:-0.057528 482:-0.076461 483:-0.015064 484:-0.007441 485:0.063508 486:-0.016208 487:-0.051317 488:0.047444 489:0.065631 490:-0.054051 491:0.020366 492:-0.023295 493:0.003294 494:0.00953 495:-0.05676 496:-0.007364 497:-0.083719 498:0.025247 499:0.041696 500:0.003779 501:-0.051209 502:-0.049405 503:-0.078146 504:-0.052225 505:0.015443 506:0.073747 507:0.008276 508:0.075988 509:0.088309 510:0.026958 511:0.035004 
0.9679329030383798 0 0 0 0:0.058899 1:-0.033581 2:0.024978 3:0.00315 4:-0.068399 5:-0.000233 6:-0.045906 7:0.002073 8:-0.051068 9:-0.034677 10:0.094247 11:-0.001945 12:0.057423 13:0.051199 14:0.068848 15:0.01555 16:-0.042439 17:0.024516 18:-0.046107 19:0.103391 20:0.023522 21:-0.090467 22:-0.03485 23:-0.05508 24:-0.02213 25:-0.019376 26:0.015967 27:0.00895 28:0.023741 29:-0.038819 30:0.063666 31:-0.051537 32:-0.072808 33:0.083764 34:-0.091336 35:-0.006696 36:-0.003941 37:0.063998 38:0.052709 39:-0.007888 40:0.003674 41:0.008095 42:-0.036871 43:0.018522 44:0.078553 45:0.011444 46:0.014223 47:-0.056394 48:-0.010392 49:-0.010512 50:0.002803 51:0.004363 52:-0.046002 53:0.016267 54:-0.094271 55:-0.028875 56:-0.04995 57:-0.064351 58:-0.06226 59:0.050741 60:0.023385 61:0.016156 62:-0.020577 63:0.087519 64:0.02737 65:0.005503 66:0.021635 67:-0.045533 68:-0.018058 69:-0.014843 70:-0.010958 71:0.026585 72:-0.019211 73:-0.015855 74:-0.024399 75:-0.008992 76:-0.025043 77:-0.017234 78:0.001987 79:-0.088238 80:0.046094 81:0.069397 82:0.001555 83:-0.002228 84:0.030962 85:0.035597 86:0.049594 87:0.048153 88:1.2e-05 89:0.093003 90:-0.002049 91:-0.025397 92:-0.111001 93:0.006063 94:-0.011784 95:-0.013118 96:0.020872 97:-0.023142 98:-0.016993 99:-0.107469 100:0.013536 101:0.011313 102:0.016958 103:0.026317 104:0.000972 105:-0.011203 106:-0.026682 107:0.003901 108:-0.087484 109:0.00037 110:-0.019709 111:0.039143 112:0.008695 113:0.084349 114:0.094206 115:0.041189 116:-0.063551 117:-0.004299 118:0.017738 119:0.011743 120:0.024658 121:0.026888 122:0.019945 123:-0.052768 124:-0.008178 125:-0.040858 126:-0.083464 127:0.017497 128:-0.011681 129:-0.045556 130:0.028869 131:0.045938 132:-0.05363 133:0.020567 134:0.078536 135:-0.057384 136:0.015335 137:-0.046608 138:-0.088224 139:0.015293 140:0.043581 141:0.052799 142:0.007306 143:0.028213 144:-0.035194 145:-0.039022 146:0.041534 147:0.099403 148:-0.03501 149:-0.010486 150:-0.045608 151:-0.00695 152:-0.006959 153:-0.033877 154:0.046866 155:0.020414 156:0.017504 157:-0.022136 158:0.009611 159:-0.016816 160:0.008178 161:0.030176 162:0.017191 163:-0.044808 164:0.031 165:0.015987 166:-0.06703 167:-0.032208 168:0.047183 169:-0.002136 170:-0.032426 171:0.055988 172:0.000559 173:-0.015167 174:0.02833 175:-0.021636 176:-0.015679 177:-0.043686 178:0.008001 179:0.048848 180:0.024354 181:-0.015198 182:0.004764 183:-0.03568 184:0.000471 185:-0.016908 186:-0.011418 187:-0.005527 188:-0.001492 189:-0.078395 190:-0.048683 191:-0.027656 192:0.047363 193:0.018715 194:0.023249 195:-0.015879 196:-0.022254 197:-0.031311 198:0.040054 199:0.014261 200:0.054772 201:-0.072373 202:-0.018873 203:0.041794 204:-0.028677 205:0.04596 206:-0.045577 207:0.039072 208:0.040429 209:-0.016461 210:-0.045862 211:0.021917 212:-0.012983 213:-0.04415 214:0.029894 215:-0.10375 216:-0.02264 217:0.111747 218:0.072719 219:0.005375 220:0.004166 221:0.020571 222:-0.029396 223:-0.015797 224:0.078617 225:0.006651 226:0.059821 227:0.044324 228:-0.099299 229:-0.05261 230:-0.02468 231:0.021055 232:0.058777 233:-0.031952 234:0.016172 235:0.041895 236:0.003865 237:-0.024711 238:0.021052 239:0.041304 240:-0.00202 241:0.066799 242:0.005784 243:0.064217 244:-0.045223 245:0.003499 246:-0.021532 247:0.029045 248:-0.073085 249:0.047502 250:-0.065296 251:0.017089 252:0.029906 253:0.021168 254:-0.010978 255:0.009103 256:-0.003082 257:0.002426 258:-0.019992 259:0.041773 260:-0.014901 261:-0.108392 262:-0.071917 263:-0.029846 264:-0.00989 265:0.065395 266:0.068875 267:-0.077016 268:0.005285 269:0.004804 270:-0.010488 271:-0.013656 272:0.074215 273:-0.016086 274:0.050271 275:0.029264 276:-0.023391 277:-0.079863 278:-0.014938 279:-0.028595 280:-0.136153 281:-0.040175 282:0.040837 283:0.028676 284:0.027995 285:0.06982 286:0.065726 287:0.0063 288:0.02051 289:-0.030533 290:0.072199 291:0.004363 292:-0.006794 293:0.046788 294:-0.008243 295:-0.003133 296:-0.002899 297:0.048618 298:0.004009 299:-0.033244 300:0.015494 301:-0.025527 302:-0.023929 303:-0.035821 304:0.033451 305:-0.002609 306:-0.067158 307:0.050801 308:0.013691 309:0.038477 310:0.027502 311:-0.018866 312:0.029665 313:0.056675 314:0.025901 315:-0.086226 316:-0.010597 317:-0.056615 318:-0.023012 319:0.0984 320:-0.064408 321:-0.027438 322:-0.062656 323:-0.017369 324:0.02763 325:-0.038444 326:0.0555 327:0.069043 328:0.031232 329:0.023128 330:-0.009773 331:-0.080463 332:-0.081401 333:-0.014898 334:0.078324 335:-0.000844 336:0.028303 337:-0.036828 338:0.004033 339:0.069 340:-0.02052 341:-0.072916 342:0.057934 343:0.04141 344:0.01386 345:0.033604 346:0.028268 347:-0.03123 348:-0.010574 349:0.079974 350:0.034026 351:-0.026982 352:0.058945 353:0.066129 354:0.030491 355:0.02702 356:-0.036259 357:-0.044493 358:-0.03869 359:0.001637 360:0.042681 361:-0.080503 362:-0.001991 363:-0.001847 364:-0.024903 365:-0.037169 366:0.050488 367:0.036465 368:0.02342 369:-0.047645 370:0.025131 371:-0.018325 372:0.08427 373:0.012906 374:0.025568 375:-0.017715 376:0.091818 377:-0.029877 378:-0.000492 379:-0.006512 380:0.029717 381:-0.041455 382:-0.009557 383:-0.042179 384:-0.017483 385:-0.065568 386:-0.0042 387:0.032672 388:6.4e-05 389:-0.032148 390:-0.00866 391:0.02172 392:-0.061484 393:-0.015856 394:-0.041842 395:0.064594 396:-0.070135 397:0.030693 398:-0.06025 399:0.0039 400:-0.004506 401:0.030804 402:0.10838 403:-0.032234 404:-0.027894 405:0.025897 406:0.04398 407:0.04887 408:-0.004815 409:-0.056671 410:0.040216 411:0.016965 412:0.031131 413:0.036642 414:-0.010385 415:-0.036947 416:-0.062715 417:0.006541 418:0.021522 419:-0.068899 420:-0.029814 421:0.052396 422:-0.07153 423:-0.031238 424:-0.035412 425:0.029192 426:-0.026766 427:-0.082583 428:0.032083 429:-0.014283 430:0.050693 431:-0.000359 432:0.040145 433:0.016099 434:-0.013286 435:0.086639 436:-0.026476 437:-0.001797 438:-0.020192 439:0.031449 440:0.004057 441:0.062313 442:-0.007682 443:0.000723 444:-0.027692 445:-0.006997 446:0.051721 447:-0.043528 448:0.070198 449:0.062305 450:-0.063048 451:-0.043377 452:0.031292 453:0.061798 454:0.00564 455:0.065891 456:0.061981 457:0.023712 458:-0.065015 459:-0.034136 460:0.019598 461:-0.081471 462:0.114517 463:-0.030067 464:-0.019958 465:0.009897 466:0.011772 467:0.049351 468:-0.056647 469:0.087465 470:0.04086 471:-0.021592 472:0.019367 473:-0.02498 474:-0.019892 475:-0.037181 476:0.017425 477:-0.010627 478:-0.007158 479:-0.057065 480:0.049047 481:-0.034553 482:-0.030482 483:0.037194 484:-0.028413 485:0.058268 486:0.039116 487:-0.038584 488:0.084459 489:0.052092 490:-0.091558 491:-0.005132 492:0.015518 493:0.06161 494:-0.028367 495:-0.065995 496:-0.008141 497:-0.067283 498:0.045474 499:0.004821 500:0.011611 501:-0.025493 502:-0.089208 503:-0.077313 504:-0.045209 505:-0.003543 506:0.039066 507:0.025476 508:-0.019967 509:-0.023768 510:0.090822 511:0.079498 
0 0 0.007883938566110374 0 0:-0.003764 1:0.031904 2:0.046347 3:-0.008577 4:-0.038056 5:0.018043 6:-0.054007 7:0.001348 8:-0.03399 9:-0.028326 10:0.071793 11:0.040049 12:0.041301 13:0.047605 14:0.080992 15:0.024219 16:-0.045542 17:0.008796 18:-0.089816 19:0.064757 20:-0.011569 21:-0.074997 22:-0.061752 23:-0.046974 24:-0.015255 25:-0.0139 26:0.004797 27:0.057158 28:0.045542 29:-0.015347 30:0.024373 31:-0.038842 32:-0.014188 33:0.067699 34:-0.119597 35:0.019859 36:0.045018 37:0.066134 38:0.056645 39:0.002015 40:0.01953 41:-0.036516 42:0.004162 43:0.004548 44:0.079599 45:0.01129 46:0.014032 47:-0.075442 48:0.020227 49:-0.023749 50:0.000713 51:-0.010934 52:-0.056383 53:-0.008872 54:-0.033875 55:-0.009747 56:-0.083102 57:-0.017482 58:-0.016568 59:0.019118 60:0.001712 61:-0.003314 62:-0.068968 63:0.03452 64:-0.019336 65:0.045855 66:-0.024601 67:0.000525 68:-0.041816 69:0.005396 70:-0.001017 71:-0.002708 72:0.002108 73:-0.007502 74:0.006076 75:-0.02175 76:-0.029763 77:0.013138 78:-0.044072 79:-0.077899 80:0.023266 81:0.048424 82:0.056557 83:-0.061196 84:0.023461 85:-0.008437 86:-0.024143 87:0.032601 88:-0.013833 89:0.078784 90:-0.001374 91:-0.000321 92:-0.055574 93:0.006999 94:-0.03877 95:-0.015231 96:0.036594 97:0.011125 98:0.027286 99:-0.073759 100:-0.035101 101:0.044981 102:0.030195 103:-0.017953 104:-0.001838 105:-0.020274 106:-0.00447 107:-0.04217 108:-0.087601 109:0.006432 110:-0.058223 111:0.040308 112:-0.013732 113:0.10799 114:0.121071 115:0.082623 116:-0.000483 117:-0.020467 118:0.018554 119:-0.061141 120:0.019935 121:0.086647 122:0.023607 123:-0.052984 124:0.032036 125:-0.075325 126:-0.045399 127:-0.001336 128:-0.004306 129:-0.04974 130:0.017898 131:0.063077 132:-0.008281 133:0.050435 134:0.027981 135:-0.103591 136:0.038245 137:-0.06512 138:-0.082392 139:-0.041819 140:0.063642 141:-4.3e-05 142:-0.028268 143:0.059164 144:-0.013121 145:-0.019375 146:0.009696 147:0.027518 148:-0.015984 149:-0.01164 150:-0.033264 151:-0.022443 152:-0.025858 153:-0.009853 154:0.078041 155:0.010654 156:-0.021257 157:-0.048304 158:0.004605 159:0.012823 160:0.026138 161:0.025007 162:0.039407 163:-0.020412 164:0.017934 165:0.017061 166:-0.029517 167:-0.04824 168:0.043807 169:0.044352 170:-0.049144 171:0.078175 172:-0.024781 173:0.011189 174:0.014209 175:-0.053574 176:0.064305 177:-0.04752 178:-0.008932 179:0.023749 180:0.074572 181:-0.036989 182:-0.00914 183:-0.028497 184:-0.001402 185:-0.057768 186:-0.022264 187:0.004323 188:0.064192 189:-0.003583 190:-0.029444 191:0.040757 192:0.01032 193:0.018206 194:-0.004003 195:0.014207 196:0.028063 197:-0.027444 198:0.022058 199:-0.037849 200:0.025564 201:-0.101266 202:0.052158 203:0.030656 204:-0.013461 205:0.040394 206:-0.029907 207:0.043589 208:0.023463 209:0.001805 210:-0.014888 211:0.002993 212:0.028041 213:-0.01355 214:0.086058 215:-0.114686 216:-0.048882 217:0.058974 218:-0.023216 219:-0.016251 220:-0.041925 221:0.028229 222:-0.02901 223:-0.070431 224:0.017931 225:-0.001011 226:0.080874 227:0.087986 228:-0.058071 229:0.004657 230:-0.078722 231:-0.015121 232:0.00073 233:-0.019058 234:0.000461 235:0.047851 236:0.022486 237:-0.001943 238:-0.001369 239:0.043848 240:-0.013114 241:0.121355 242:0.041554 243:0.070212 244:-0.05735 245:-0.002053 246:0.006154 247:-0.002038 248:-0.093373 249:0.039481 250:-0.043144 251:0.054506 252:0.021943 253:-0.022286 254:-0.000317 255:0.019517 256:0.002722 257:0.011021 258:-0.003805 259:0.030334 260:0.000716 261:-0.06305 262:-0.090842 263:-0.024746 264:-0.0046 265:0.028765 266:0.035368 267:-0.045459 268:-0.026005 269:-0.034935 270:-0.026134 271:-0.009647 272:0.045757 273:0.014879 274:0.065579 275:-0.010005 276:-0.006031 277:-0.041384 278:0.048213 279:0.010591 280:-0.12767 281:0.004014 282:-0.024977 283:0.013004 284:0.042788 285:0.037559 286:0.057416 287:0.041039 288:0.025817 289:-0.065431 290:0.020903 291:0.046323 292:-0.019557 293:0.055486 294:0.021433 295:-0.004272 296:0.026317 297:0.041318 298:0.028169 299:0.009085 300:0.005694 301:-0.032261 302:-0.034103 303:-0.033166 304:0.028611 305:0.001069 306:-0.008939 307:0.020848 308:0.01429 309:0.017507 310:0.053003 311:0.032011 312:0.037021 313:0.043673 314:0.030605 315:-0.050918 316:0.010307 317:-0.038808 318:-0.041805 319:0.092008 320:-0.021141 321:-0.035929 322:-0.099124 323:0.032177 324:0.005548 325:-0.046787 326:0.020537 327:0.05469 328:-0.009464 329:0.00474 330:0.003342 331:-0.098459 332:-0.030943 333:-0.049535 334:3.8e-05 335:0.00936 336:-0.008094 337:-0.05184 338:0.039627 339:0.059351 340:-0.04721 341:-0.048183 342:0.013887 343:0.045055 344:0.058143 345:-0.000519 346:0.00131 347:-0.021273 348:0.009421 349:0.055597 350:0.03626 351:-0.007536 352:0.026239 353:0.065132 354:0.037872 355:0.055617 356:-0.03333 357:-0.010459 358:-0.042038 359:0.030806 360:-0.008703 361:-0.084629 362:-0.007502 363:-0.008305 364:-0.008942 365:-0.050265 366:0.00343 367:0.05154 368:0.022115 369:-0.017171 370:0.073436 371:-0.079517 372:0.059176 373:-0.025221 374:0.028143 375:-0.002368 376:0.101188 377:-0.048811 378:-0.026164 379:-0.044807 380:-0.017749 381:-0.0588 382:0.01599 383:-0.049557 384:-0.018513 385:-0.077576 386:-0.033239 387:-0.002831 388:0.008593 389:-0.058403 390:-0.003647 391:0.033827 392:0.008606 393:-0.012917 394:-0.045091 395:0.061003 396:0.033487 397:0.029204 398:-0.059368 399:0.052398 400:0.015457 401:0.064939 402:0.106039 403:-0.04724 404:-0.05729 405:-0.008918 406:0.053094 407:0.00344 408:0.003739 409:0.05149 410:0.019693 411:-0.018123 412:0.042173 413:0.01876 414:0.017845 415:0.041374 416:-0.060522 417:0.009633 418:0.014944 419:-0.082015 420:-0.011466 421:0.052322 422:-0.040257 423:-0.058617 424:-0.081952 425:0.025833 426:-0.061469 427:-0.055353 428:0.021356 429:-0.000684 430:0.037417 431:0.039415 432:-0.015933 433:0.005532 434:0.031715 435:0.086614 436:-0.034604 437:-0.022308 438:0.019153 439:0.012613 440:0.041761 441:0.089554 442:-0.007296 443:-0.028009 444:-0.061622 445:0.021067 446:0.055166 447:-0.076619 448:0.062452 449:0.069943 450:-0.053637 451:-0.055671 452:-0.019149 453:0.039514 454:0.01842 455:0.095757 456:0.078214 457:-0.024616 458:-0.053414 459:-0.058787 460:0.017656 461:-0.086643 462:0.101818 463:-0.080375 464:-0.017307 465:-0.019639 466:-0.018386 467:0.030312 468:-0.057247 469:0.074895 470:-0.009928 471:-0.027918 472:0.011104 473:-0.04127 474:0.022072 475:-0.023699 476:0.029715 477:0.017747 478:0.01848 479:-0.003455 480:0.055525 481:-0.02096 482:-0.095805 483:0.008008 484:0.014404 485:0.018415 486:0.031798 487:-0.06493 488:0.043977 489:0.091879 490:-0.095556 491:0.031854 492:-0.009922 493:0.022755 494:-0.021117 495:-0.069515 496:-0.024563 497:-0.037462 498:0.021735 499:0.029532 500:-0.017062 501:0.004099 502:-0.070177 503:-0.101698 504:-0.047747 505:0.009591 506:0.0312 507:-0.000982 508:0.057549 509:0.029667 510:0.092128 511:0.085179 
0 0.8651015956867506 0 0.8170122775581516 0:0.0384 1:-0.04353 2:0.037243 3:0.006508 4:-0.08776 5:0.04557 6:-0.035482 7:-0.033944 8:-0.015771 9:-0.027064 10:0.074566 11:-0.021803 12:0.057671 13:0.054608 14:0.049862 15:0.02393 16:-0.040687 17:0.012602 18:-0.019429 19:0.018596 20:-0.029256 21:-0.078606 22:-0.04692 23:-0.029368 24:-0.020208 25:0.005635 26:-0.068979 27:-0.023699 28:-0.036457 29:-0.042009 30:0.038698 31:0.048784 32:0.000883 33:0.109426 34:-0.119314 35:0.014014 36:-0.002411 37:0.059656 38:0.024451 39:0.004001 40:-0.001485 41:-0.047073 42:-0.032573 43:0.031876 44:0.102573 45:0.039169 46:0.019878 47:-0.076427 48:0.025217 49:-0.044482 50:0.04117 51:0.024281 52:-0.040095 53:0.044696 54:-0.093802 55:-0.024501 56:-0.016905 57:-0.051301 58:-0.043698 59:0.033602 60:-0.017221 61:-0.020168 62:-0.039304 63:0.028483 64:-0.02491 65:0.060477 66:-0.025993 67:-0.00495 68:-0.054068 69:0.017699 70:0.014349 71:-0.009053 72:0.020624 73:0.027337 74:-0.01666 75:0.00994 76:-0.060233 77:0.044641 78:-0.056252 79:-0.065989 80:0.040707 81:0.070286 82:-0.008409 83:-0.017128 84:0.028822 85:0.048717 86:0.036917 87:0.030933 88:-0.002163 89:0.084129 90:-0.021539 91:0.007181 92:-0.060791 93:0.039785 94:0.052903 95:0.002991 96:0.005874 97:-5.5e-05 98:-0.027868 99:-0.058104 100:0.030245 101:0.034331 102:0.037742 103:-0.03836 104:0.028032 105:-0.032943 106:-0.000735 107:-0.041756 108:-0.14259 109:-0.043023 110:-0.045397 111:0.011398 112:-0.041144 113:0.02312 114:0.035831 115:0.058993 116:-0.019646 117:-0.027784 118:0.00625 119:0.019689 120:-0.01595 121:0.03629 122:-0.000844 123:-0.012996 124:-0.00876 125:-0.075589 126:-0.051331 127:0.034359 128:0.059562 129:-0.093854 130:0.037332 131:0.030392 132:-0.041703 133:0.058705 134:0.062829 135:-0.045796 136:0.03107 137:-0.08677 138:-0.0948 139:0.014471 140:0.045362 141:0.047014 142:-0.029128 143:0.001181 144:0.014231 145:-0.053757 146:0.018937 147:0.074072 148:-0.01538 149:0.008553 150:0.002291 151:-0.011353 152:-0.025365 153:-0.012903 154:0.04134 155:0.061169 156:-0.00959 157:0.007582 158:0.076862 159:-0.057354 160:-0.019517 161:0.053224 162:-0.015297 163:-0.015281 164:0.018818 165:-0.049267 166:-0.064431 167:-0.004145 168:0.081586 169:0.053031 170:-0.015772 171:0.096626 172:-0.032589 173:-0.01705 174:0.013161 175:-0.007811 176:-0.007836 177:-0.034928 178:-0.002391 179:0.004803 180:0.033248 181:0.032221 182:-0.014662 183:0.021486 184:0.008447 185:-0.014058 186:0.050879 187:0.029321 188:0.024663 189:-0.036816 190:0.027823 191:-0.018207 192:0.049751 193:0.044832 194:-0.012224 195:-0.05385 196:-0.009406 197:-0.030972 198:0.009637 199:0.010041 200:0.106522 201:-0.017062 202:0.034302 203:0.10921 204:-0.019812 205:0.046592 206:-0.025257 207:0.02136 208:0.046961 209:0.006149 210:-0.024825 211:-0.026831 212:-0.007523 213:0.025957 214:0.075007 215:-0.099633 216:0.008079 217:0.047136 218:0.093478 219:0.011964 220:0.026127 221:0.000904 222:-0.030084 223:-0.050946 224:0.027303 225:-0.038176 226:0.065383 227:0.087537 228:-0.104168 229:0.039355 230:-0.014865 231:0.018794 232:-0.011018 233:0.015062 234:0.007519 235:0.019921 236:0.018046 237:-0.039325 238:0.040963 239:0.016926 240:0.001055 241:0.115997 242:0.027222 243:0.069317 244:-0.053536 245:-0.017306 246:0.004455 247:0.035486 248:-0.043248 249:0.075891 250:-0.0401 251:0.002346 252:0.042596 253:-0.011588 254:-0.018545 255:0.054095 256:0.011153 257:-0.041996 258:-0.016117 259:0.069256 260:-0.0336 261:-0.060856 262:-0.042874 263:0.000897 264:-0.040054 265:0.033522 266:0.076524 267:-0.087274 268:-0.014801 269:-0.014173 270:-0.041602 271:-0.027019 272:0.028161 273:0.050909 274:0.070837 275:-0.015136 276:-0.041679 277:-0.055492 278:-0.037306 279:-0.008857 280:-0.127496 281:0.009003 282:0.012737 283:-0.006578 284:0.008632 285:0.053811 286:0.01611 287:-0.027364 288:-0.016906 289:-0.043191 290:0.073653 291:0.081257 292:0.046087 293:0.003327 294:0.026484 295:-0.054339 296:0.025153 297:0.042418 298:0.031705 299:-0.006441 300:-0.024003 301:-0.041303 302:-0.014453 303:-0.010781 304:0.022135 305:0.018677 306:-0.090833 307:0.04421 308:0.092693 309:0.014445 310:-0.031573 311:0.012397 312:0.05374 313:0.011863 314:0.004894 315:-0.096254 316:0.006588 317:-0.018504 318:0.050644 319:0.07548 320:-0.046366 321:-0.013448 322:-0.072977 323:-0.074361 324:0.008977 325:-0.004199 326:0.010087 327:0.040257 328:0.014393 329:0.028121 330:-0.031947 331:-0.040163 332:-0.04284 333:-0.016219 334:0.035152 335:0.037995 336:0.016747 337:-0.062456 338:0.038659 339:-0.015425 340:-0.063687 341:-0.044017 342:0.097788 343:-0.049916 344:0.003266 345:-0.00309 346:0.031081 347:-0.023017 348:-0.038865 349:0.073804 350:0.026701 351:0.018723 352:-0.026449 353:0.059491 354:0.080564 355:0.007287 356:0.000117 357:-0.037004 358:-0.05854 359:-0.01073 360:-0.014084 361:-0.090421 362:0.057882 363:-0.010727 364:-0.021798 365:-0.067099 366:0.034181 367:0.062871 368:-0.002614 369:-0.056154 370:0.052654 371:-0.000863 372:0.026546 373:-0.013585 374:0.013131 375:-0.007287 376:0.095004 377:-0.010004 378:-0.011667 379:-0.014869 380:-0.021765 381:-0.09173 382:-0.022222 383:-0.01702 384:-0.04863 385:-0.06942 386:-0.065718 387:-0.001018 388:-0.005238 389:-0.038044 390:-0.004396 391:0.01748 392:0.044404 393:-0.0094 394:-0.044531 395:0.030424 396:-0.040337 397:0.015862 398:-0.062072 399:0.015728 400:0.00628 401:-0.010238 402:0.064646 403:-0.035993 404:-0.011542 405:-0.013349 406:0.081916 407:0.038673 408:-0.034167 409:-0.041885 410:0.039015 411:-0.02675 412:0.06026 413:-0.006681 414:0.000577 415:0.031147 416:-0.074979 417:-0.054236 418:0.008819 419:-0.031323 420:-0.027201 421:0.019922 422:-0.052148 423:-0.017181 424:-0.08578 425:0.036652 426:-0.01965 427:-0.047545 428:0.027284 429:-0.049914 430:0.085499 431:-0.010859 432:-0.028917 433:-0.012696 434:0.070314 435:0.100128 436:0.00312 437:-0.021775 438:0.007915 439:-0.037498 440:-0.023165 441:0.070717 442:0.032079 443:0.03056 444:-0.007582 445:-0.026964 446:0.02697 447:-0.047973 448:0.059439 449:0.032969 450:-0.102665 451:0.006979 452:0.001935 453:0.022377 454:-0.020814 455:0.06023 456:0.01795 457:0.065386 458:-0.013359 459:0.010265 460:-0.035947 461:-0.055988 462:0.105657 463:-0.052547 464:-0.031666 465:-0.011322 466:-0.069906 467:0.050658 468:-0.01043 469:0.058039 470:0.027598 471:-0.072771 472:-0.047576 473:-0.004517 474:-0.015704 475:-0.063075 476:0.006524 477:-0.00888 478:0.050538 479:-0.002249 480:0.040887 481:-0.05337 482:-0.051533 483:-0.005542 484:-0.019241 485:-0.011764 486:0.01356 487:-0.019455 488:0.059965 489:0.011356 490:-0.096531 491:0.006203 492:0.05525 493:0.014997 494:-0.028039 495:-0.045206 496:-0.030316 497:-0.024259 498:0.109765 499:0.003584 500:0.008107 501:-0.025268 502:-0.040628 503:-0.021332 504:-0.030569 505:0.019111 506:0.031621 507:-0.033459 508:0.013692 509:-0.017507 510:0.011653 511:0.080375 
0 0.0519102684927702 0.131342120635607 0 0:0.026794 1:-0.01244 2:0.0486 3:0.01404 4:-0.054205 5:0.043173 6:-0.037444 7:-0.001608 8:0.000392 9:-0.034639 10:0.118697 11:-0.011639 12:0.080915 13:0.071698 14:0.035148 15:0.008436 16:-0.041714 17:0.034011 18:-0.095663 19:0.063737 20:-0.005677 21:-0.049485 22:-0.016822 23:-0.034904 24:-0.070436 25:-0.033236 26:-0.030732 27:0.043792 28:-0.008069 29:-0.039102 30:0.049264 31:0.004484 32:-0.026045 33:0.024262 34:-0.084626 35:0.025334 36:0.022074 37:0.072497 38:0.058784 39:-0.048757 40:-0.007505 41:0.000744 42:0.017852 43:0.004033 44:0.10713 45:0.021542 46:0.020841 47:-0.065657 48:-0.005595 49:-0.034426 50:-0.001015 51:-0.005446 52:-0.030189 53:0.063597 54:-0.041648 55:0.022755 56:-0.026609 57:-0.076146 58:0.005314 59:0.039957 60:0.046908 61:-0.02881 62:-0.030125 63:0.05263 64:-0.020512 65:0.058694 66:0.004639 67:-0.022972 68:0.027941 69:0.041034 70:-0.041787 71:-0.025726 72:0.029553 73:-0.004537 74:-0.013258 75:-0.020788 76:-0.0616 77:-0.001849 78:-0.046273 79:-0.063665 80:0.04175 81:0.088708 82:0.010345 83:-0.008978 84:0.024108 85:0.033941 86:0.016975 87:-0.000941 88:-0.013744 89:0.048952 90:-0.044369 91:0.022448 92:-0.024237 93:0.038053 94:-0.032979 95:0.021064 96:-0.023029 97:-0.023516 98:0.042082 99:-0.092863 100:-0.01746 101:0.048986 102:0.007681 103:-0.018413 104:0.021815 105:0.008115 106:-0.066963 107:-0.08428 108:-0.14509 109:-0.009831 110:-0.069924 111:0.093163 112:-0.036587 113:0.051358 114:0.093815 115:0.059136 116:-0.000101 117:-0.01569 118:-0.026446 119:-0.068912 120:-0.024097 121:0.039384 122:0.012377 123:-0.037718 124:0.0199 125:-0.055179 126:-0.064611 127:-0.011329 128:0.010448 129:-0.031064 130:0.008689 131:0.061327 132:-0.046871 133:0.027709 134:0.06297 135:-0.064975 136:-0.010974 137:-0.084284 138:-0.054392 139:-0.005419 140:0.038985 141:0.037793 142:0.006989 143:0.023843 144:-0.038396 145:-0.008844 146:0.015646 147:0.058585 148:-0.064658 149:0.034019 150:-0.017749 151:-0.068015 152:-0.050265 153:-0.005309 154:0.046217 155:0.022893 156:-0.052813 157:-0.015054 158:0.004804 159:-0.073826 160:0.033335 161:0.044316 162:0.03051 163:-0.054214 164:0.020055 165:-0.05296 166:-0.054356 167:-0.049977 168:0.096604 169:0.02788 170:-0.05013 171:0.081799 172:-0.016201 173:-0.003312 174:0.017252 175:-0.017997 176:0.035903 177:0.019566 178:0.001375 179:0.004091 180:0.030761 181:-0.006712 182:-0.02138 183:-0.091666 184:0.008466 185:-0.016736 186:0.011884 187:0.007449 188:0.025512 189:-0.065716 190:-0.023535 191:0.020867 192:0.042367 193:0.030575 194:-0.002021 195:-0.00762 196:0.003044 197:-0.054371 198:0.035569 199:-0.032155 200:0.059145 201:0.007325 202:0.054315 203:0.014776 204:-0.02664 205:0.074408 206:-0.059884 207:0.015923 208:0.057566 209:0.017206 210:0.003138 211:0.035269 212:-0.015951 213:-0.015561 214:0.034229 215:-0.065366 216:-0.035487 217:0.042397 218:-0.019165 219:-0.015135 220:0.021445 221:0.031751 222:0.000774 223:0.004979 224:0.042702 225:-0.026936 226:0.06131 227:0.091023 228:-0.066093 229:-0.018674 230:-0.021706 231:-0.019416 232:0.009414 233:-0.022807 234:-0.004275 235:0.03937 236:-0.023133 237:-0.009502 238:0.033135 239:0.063371 240:0.033227 241:0.118045 242:0.024437 243:0.047245 244:-0.099751 245:-0.025769 246:-0.030064 247:0.021047 248:-0.091549 249:0.07155 250:-0.068686 251:0.013189 252:-0.001035 253:0.014857 254:0.049486 255:0.007803 256:-0.037869 257:9.7e-05 258:-0.017893 259:0.035006 260:0.011512 261:-0.114468 262:-0.017114 263:-0.013256 264:-0.032236 265:0.020346 266:0.044044 267:-0.037226 268:0.004009 269:-0.0341 270:-0.007826 271:-0.043036 272:0.080341 273:0.031917 274:0.0982 275:0.041447 276:0.004395 277:-0.036842 278:-0.007643 279:-0.018963 280:-0.123959 281:0.019798 282:-0.028075 283:-0.022441 284:0.019187 285:0.074037 286:0.059744 287:0.036817 288:-0.029874 289:-0.048099 290:0.056965 291:0.067765 292:-0.023591 293:0.054687 294:0.021909 295:0.018577 296:0.00372 297:0.01584 298:0.009245 299:-0.068147 300:0.019684 301:0.043277 302:0.016233 303:-0.075881 304:0.035321 305:0.011681 306:-0.020563 307:0.010441 308:0.023599 309:0.011217 310:0.03462 311:-0.026076 312:0.057365 313:0.042661 314:0.038651 315:-0.058764 316:-0.027058 317:0.008082 318:-0.013914 319:0.105702 320:-0.090849 321:-0.057877 322:-0.013174 323:0.013037 324:0.03782 325:-0.027911 326:0.007624 327:0.043149 328:0.025071 329:-0.001488 330:0.006622 331:-0.113337 332:-0.055762 333:-0.037607 334:0.031839 335:0.013985 336:0.051173 337:-0.060485 338:0.047188 339:0.034074 340:-0.001766 341:-0.089606 342:0.041983 343:-0.001092 344:0.037917 345:-0.027007 346:-0.01449 347:0.012491 348:-0.026988 349:0.089705 350:0.07064 351:-0.012278 352:0.031288 353:0.034989 354:0.042457 355:0.054465 356:-0.033161 357:-0.045886 358:-0.076189 359:0.023862 360:0.003918 361:-0.048976 362:0.002057 363:-0.004894 364:-0.009053 365:-0.027426 366:0.024187 367:0.081534 368:0.00466 369:-0.059296 370:0.041764 371:-0.031171 372:0.067243 373:0.011348 374:0.009732 375:0.042901 376:0.08548 377:-0.063095 378:-0.022257 379:-0.028116 380:0.005411 381:-0.046646 382:0.022082 383:-0.049658 384:-0.050364 385:-0.067856 386:-0.003439 387:-0.006648 388:-0.022891 389:-0.067976 390:0.043571 391:-0.014725 392:-0.047419 393:0.000373 394:-0.047499 395:0.081044 396:0.012585 397:0.027496 398:-0.04539 399:0.006599 400:-0.047472 401:0.032585 402:0.08682 403:-0.037077 404:-0.001871 405:0.020767 406:0.026678 407:0.027503 408:0.015239 409:0.000166 410:0.036167 411:0.031093 412:0.062308 413:0.008404 414:-0.013905 415:0.037717 416:-0.077726 417:-0.01023 418:0.034393 419:-0.040064 420:-0.016964 421:0.007965 422:-0.094073 423:-0.062391 424:-0.048879 425:0.053613 426:-0.03553 427:-0.068961 428:0.037792 429:-0.005151 430:0.002284 431:0.006461 432:0.010156 433:-0.015353 434:0.019313 435:0.077323 436:-0.00692 437:-0.006642 438:0.011901 439:0.000786 440:-0.013087 441:0.063158 442:-0.030268 443:-0.025045 444:-0.025722 445:0.029722 446:0.015052 447:-0.044406 448:0.049606 449:0.043274 450:-0.066665 451:-0.042621 452:0.019281 453:0.017922 454:-0.052462 455:0.049917 456:0.044609 457:0.023652 458:-0.04206 459:-0.020265 460:-0.043988 461:-0.064957 462:0.10882 463:-0.005002 464:-0.061799 465:-0.016909 466:-0.032663 467:0.005682 468:-0.086783 469:0.045563 470:-0.013332 471:-0.03691 472:-0.02588 473:-0.030126 474:-0.023577 475:-0.03961 476:0.020121 477:0.010545 478:0.006514 479:-0.058201 480:0.063844 481:-0.041159 482:-0.09649 483:-0.022858 484:-0.047094 485:0.029891 486:0.009864 487:-0.027301 488:0.045925 489:0.031119 490:-0.088559 491:-0.044732 492:0.034599 493:0.04083 494:-0.01788 495:-0.068198 496:0.009391 497:-0.067513 498:-0.00421 499:0.002763 500:0.008564 501:-0.036075 502:-0.058754 503:-0.069824 504:-0.037353 505:0.021201 506:0.084644 507:0.008692 508:0.084634 509:0.017614 510:0.020123 511:0.069956 
0 0.2990857234796838 0.2630401183311107 0.2010544165465875 0:0.043469 1:-0.003608 2:0.021353 3:0.022668 4:-0.068681 5:0.024039 6:-0.02639 7:0.038661 8:-0.024561 9:-0.040815 10:0.045949 11:-0.008521 12:0.090525 13:0.074709 14:0.081311 15:0.00859 16:-0.047745 17:0.010075 18:-0.042803 19:0.05465 20:-0.041092 21:-0.036374 22:-0.028713 23:-0.047101 24:0.005816 25:-0.04521 26:-0.018198 27:0.009327 28:0.021482 29:-0.041601 30:0.027802 31:-0.000247 32:-0.040632 33:0.023479 34:-0.110238 35:0.030697 36:0.008954 37:0.10655 38:0.059102 39:-0.039662 40:0.013481 41:0.017169 42:-0.00607 43:-0.004958 44:0.105412 45:0.047893 46:0.026318 47:-0.065857 48:-0.01127 49:-0.036772 50:0.032292 51:-0.016878 52:-0.065306 53:-0.016632 54:-0.13361 55:0.011908 56:-0.019099 57:-0.068363 58:-0.028904 59:0.003751 60:-0.024419 61:-0.026058 62:-0.032838 63:0.029892 64:-0.052403 65:0.038216 66:-0.010351 67:-0.016263 68:-0.018498 69:0.003635 70:0.008775 71:0.013897 72:-0.006231 73:-0.031381 74:0.006456 75:-0.053728 76:-0.043793 77:0.006965 78:-0.050691 79:-0.092513 80:0.062404 81:0.076761 82:0.002501 83:-0.059347 84:0.00315 85:0.038076 86:0.021572 87:-0.009769 88:-0.039005 89:0.094127 90:-0.025283 91:0.009112 92:-0.049279 93:-0.026541 94:0.007973 95:-0.041721 96:-0.008762 97:-0.05627 98:-0.047323 99:-0.086169 100:0.006582 101:0.058881 102:0.042465 103:-0.011912 104:-0.002443 105:-0.009136 106:-0.04207 107:-0.028563 108:-0.117781 109:0.011016 110:-0.063184 111:0.027708 112:0.004965 113:0.070452 114:0.094093 115:0.032072 116:-0.010241 117:0.015462 118:-0.000824 119:-0.044581 120:-0.017961 121:0.051084 122:0.037036 123:-0.086102 124:0.009238 125:-0.069084 126:-0.036267 127:0.034088 128:-0.00334 129:-0.059768 130:0.053187 131:0.021335 132:-0.069224 133:0.041833 134:0.070692 135:-0.027678 136:0.027599 137:-0.033978 138:-0.053508 139:0.008954 140:0.034557 141:0.045761 142:0.003845 143:0.015172 144:0.021001 145:0.015463 146:0.051558 147:0.047308 148:-0.016623 149:-0.011692 150:-0.013285 151:-0.052209 152:-0.030735 153:-0.043564 154:0.074128 155:0.044825 156:0.008735 157:-0.01297 158:0.039446 159:-0.001792 160:-0.010373 161:0.030428 162:0.021255 163:-0.05333 164:0.001435 165:-0.047676 166:-0.057714 167:-0.062788 168:0.045861 169:0.004489 170:-0.050019 171:0.093566 172:0.025995 173:0.013111 174:0.058732 175:-0.020334 176:0.04864 177:-0.060388 178:0.004933 179:0.045308 180:0.035386 181:-0.011861 182:-0.029114 183:-0.052739 184:0.010864 185:-0.011447 186:0.037531 187:0.015588 188:0.041941 189:-0.056937 190:-0.00463 191:-0.009427 192:0.061003 193:0.056324 194:0.057697 195:0.002165 196:-0.030727 197:-0.058728 198:0.021853 199:-0.01376 200:0.028234 201:-0.046167 202:0.034052 203:0.056411 204:-0.013082 205:0.070253 206:-0.018595 207:0.030768 208:0.069516 209:-0.012274 210:-0.025993 211:0.023372 212:-0.03853 213:-0.021574 214:0.07633 215:-0.072496 216:-0.024803 217:0.004169 218:0.05553 219:-0.005032 220:0.03832 221:0.048518 222:-0.070456 223:-0.006762 224:0.035193 225:-0.002008 226:0.053474 227:0.076117 228:-0.082681 229:0.021959 230:-0.072091 231:0.000245 232:0.048014 233:-0.014584 234:-0.046702 235:0.054676 236:0.010436 237:-0.049626 238:0.039168 239:0.039032 240:-0.014957 241:0.075337 242:0.005588 243:0.002719 244:-0.062486 245:-0.023151 246:-0.049545 247:-0.000298 248:-0.069812 249:0.097689 250:-0.05175 251:0.022411 252:-0.049182 253:0.00306 254:0.010363 255:0.030727 256:0.022125 257:-0.032952 258:-0.051963 259:0.037771 260:-0.039933 261:-0.061053 262:-0.058687 263:-0.024097 264:-0.005498 265:0.037838 266:0.036456 267:-0.095026 268:0.006083 269:0.011154 270:-0.057318 271:-0.012574 272:0.068726 273:0.010394 274:0.024141 275:-0.008057 276:-0.019703 277:-0.075289 278:0.028976 279:-0.003819 280:-0.109832 281:0.012153 282:0.027174 283:-0.028336 284:0.024923 285:0.078464 286:0.064668 287:0.012864 288:-0.017612 289:-0.065725 290:0.044863 291:0.037425 292:-0.002953 293:0.043439 294:-0.006346 295:-0.052315 296:0.00723 297:0.059972 298:0.012267 299:-0.039699 300:-0.014302 301:-0.014919 302:-0.029128 303:-0.089331 304:0.010519 305:0.00513 306:-0.052416 307:0.014117 308:0.03663 309:0.055121 310:0.031129 311:0.001666 312:-0.008811 313:0.045859 314:0.001644 315:-0.100066 316:0.011204 317:-0.033808 318:-0.033258 319:0.085004 320:-0.022329 321:-0.041978 322:-0.054489 323:-0.024469 324:0.058734 325:-0.008713 326:0.01376 327:0.030189 328:0.02932 329:-0.038822 330:-0.029345 331:-0.090288 332:-0.008505 333:-0.053815 334:0.001527 335:0.014448 336:0.023127 337:-0.051754 338:0.066676 339:0.027074 340:-0.058155 341:-0.041738 342:0.041119 343:0.050518 344:0.032549 345:0.016746 346:0.025735 347:-0.002048 348:-0.034737 349:0.081674 350:0.049235 351:0.013146 352:0.00284 353:0.038863 354:0.024847 355:-0.003793 356:-0.04131 357:-0.017015 358:-0.055664 359:-0.022196 360:0.074758 361:-0.083048 362:0.004428 363:0.028574 364:-0.013361 365:-0.038681 366:0.053584 367:0.038787 368:0.017141 369:-0.04963 370:0.010647 371:-0.053328 372:0.067677 373:-0.019758 374:0.028098 375:-0.014571 376:0.063311 377:-0.048049 378:-0.033819 379:-0.03975 380:-0.019988 381:-0.075807 382:-0.000175 383:-0.031758 384:-0.056344 385:-0.062629 386:-0.053603 387:0.025224 388:-0.009931 389:-0.105312 390:0.051879 391:-0.014044 392:-0.037054 393:-0.035094 394:-0.038425 395:0.054921 396:0.013352 397:0.007033 398:-0.067068 399:0.060764 400:-0.04369 401:0.046704 402:0.043367 403:-0.004652 404:-0.001791 405:-0.00203 406:0.014961 407:0.047396 408:0.0082 409:-0.028207 410:-0.002359 411:0.005735 412:0.028744 413:0.027668 414:0.030853 415:0.021421 416:-0.073315 417:0.004396 418:0.036907 419:-0.075515 420:-0.062234 421:0.018921 422:-0.074257 423:-0.056257 424:-0.071016 425:-0.00094 426:-0.022751 427:-0.07991 428:0.007633 429:0.007148 430:0.019026 431:-0.014767 432:-0.003096 433:-0.012682 434:0.016223 435:0.08708 436:-0.017393 437:-0.028843 438:0.02029 439:-0.040629 440:0.016457 441:0.048221 442:0.031412 443:-0.022588 444:-0.032459 445:-0.013497 446:0.040803 447:-0.054254 448:0.056894 449:0.053023 450:-0.086976 451:-0.028339 452:-0.02186 453:0.034912 454:0.003022 455:0.072204 456:0.096891 457:0.022897 458:-0.050746 459:-0.022361 460:-0.029306 461:-0.074952 462:0.095188 463:-0.040112 464:-0.050949 465:0.026578 466:-0.040228 467:0.061606 468:-0.033321 469:0.077557 470:0.025767 471:-0.0427 472:0.010392 473:-0.015425 474:0.000109 475:-0.066659 476:0.023841 477:0.025107 478:0.015074 479:-0.009789 480:0.028979 481:-0.049078 482:-0.057755 483:-0.025313 484:-0.010883 485:0.051279 486:0.019087 487:-0.040721 488:0.076759 489:0.099042 490:-0.074812 491:-0.056278 492:0.020268 493:-0.028513 494:-0.053723 495:-0.073032 496:0.004527 497:-0.067028 498:0.042025 499:0.008354 500:0.044237 501:-0.06999 502:-0.027856 503:-0.059174 504:-0.039508 505:0.047717 506:0.061882 507:0.011208 508:0.035021 509:-0.004684 510:0.006378 511:0.064129 
0.9871188612750746 0 0 0.4458777131568136 0:0.068599 1:-0.035928 2:0.041076 3:0.000241 4:-0.072533 5:0.01516 6:-0.051514 7:-0.012089 8:-0.021126 9:-0.047931 10:0.083727 11:-0.065359 12:0.052437 13:0.024019 14:0.064256 15:0.021865 16:-0.016215 17:0.085096 18:-0.061007 19:0.09396 20:0.014062 21:-0.063557 22:-0.024621 23:-0.028489 24:-0.040305 25:-0.009762 26:-0.024406 27:0.029315 28:-0.040054 29:-0.008759 30:0.0718 31:0.015344 32:-0.04307 33:0.089566 34:-0.071462 35:0.000248 36:0.019528 37:0.064551 38:0.052203 39:-0.023704 40:0.011527 41:-0.006437 42:-0.001951 43:0.028123 44:0.087014 45:0.021333 46:0.006118 47:-0.083772 48:-0.014595 49:-0.028772 50:0.039823 51:0.019723 52:-0.045805 53:0.060715 54:-0.079901 55:-0.028994 56:-0.023912 57:-0.087237 58:-0.025641 59:0.058975 60:-0.003676 61:-0.002519 62:-0.050015 63:0.03295 64:-0.014049 65:0.027321 66:0.01182 67:-0.006749 68:0.012122 69:0.013861 70:-0.004653 71:-0.023035 72:-0.004739 73:-0.036005 74:-0.009149 75:-0.017924 76:-0.041574 77:0.025717 78:-0.03878 79:-0.088209 80:0.024211 81:0.063136 82:0.02571 83:-0.019797 84:0.009097 85:0.050174 86:0.027763 87:0.031907 88:-0.011881 89:0.09434 90:-0.064077 91:-0.00868 92:-0.062635 93:0.051664 94:-0.003052 95:-0.027004 96:-0.004855 97:-0.038167 98:-0.009827 99:-0.074569 100:-0.029504 101:0.074747 102:0.004524 103:0.013067 104:0.039992 105:-0.007132 106:-0.016165 107:-0.042928 108:-0.106605 109:0.016063 110:-0.072167 111:0.023935 112:-0.018215 113:0.04375 114:0.056523 115:0.067909 116:-0.032082 117:-0.018145 118:-0.014515 119:-0.007533 120:0.019813 121:0.031957 122:-0.005588 123:0.000366 124:0.007275 125:-0.028649 126:-0.092553 127:0.023217 128:0.023082 129:-0.055165 130:0.035583 131:0.05344 132:-0.07194 133:0.024865 134:0.115247 135:-0.035353 136:0.005235 137:-0.122463 138:-0.094833 139:-0.012944 140:0.050086 141:0.008185 142:-0.033175 143:0.016867 144:-0.022526 145:-0.050782 146:0.040958 147:0.034755 148:-0.023707 149:0.009464 150:-0.039812 151:-0.061049 152:0.013289 153:-0.006033 154:0.030829 155:0.002802 156:-0.000662 157:-0.014025 158:0.027264 159:-0.056266 160:-0.020429 161:0.052798 162:-0.035053 163:-0.030088 164:0.050538 165:-0.021505 166:-0.086291 167:-0.025244 168:0.075322 169:-0.010351 170:-0.028075 171:0.10473 172:-0.056697 173:0.031637 174:0.023516 175:-0.010645 176:0.015014 177:0.001104 178:-0.010096 179:0.017228 180:0.029263 181:0.055346 182:0.023141 183:-0.033753 184:0.041113 185:-0.006534 186:0.019816 187:0.00339 188:0.042373 189:-0.054526 190:0.008968 191:-0.019284 192:0.030212 193:0.047128 194:0.010617 195:-0.025248 196:-0.043814 197:-0.009403 198:0.038606 199:0.016808 200:0.096813 201:-0.010926 202:0.032986 203:0.076203 204:-0.022928 205:0.057243 206:-0.054259 207:0.060266 208:0.023893 209:0.0247 210:0.001761 211:0.00714 212:-0.008759 213:0.006302 214:0.018043 215:-0.078929 216:0.011195 217:0.055234 218:0.057579 219:-0.003052 220:0.057063 221:0.003711 222:-0.02526 223:0.004218 224:0.016383 225:-0.018855 226:0.066516 227:0.082981 228:-0.083021 229:-0.007393 230:-0.018415 231:-0.011705 232:0.034023 233:0.00389 234:0.041208 235:0.022764 236:-0.047985 237:-0.0232 238:0.04457 239:0.03668 240:0.004653 241:0.086382 242:0.040687 243:0.063152 244:-0.049161 245:0.010239 246:-0.005454 247:0.073143 248:-0.055032 249:0.073434 250:-0.053334 251:0.00554 252:0.039836 253:-0.048984 254:0.005326 255:0.004008 256:0.03866 257:-0.039618 258:-0.037068 259:0.011128 260:-0.021588 261:-0.115971 262:-0.051835 263:0.003113 264:-0.020638 265:0.018861 266:0.037504 267:-0.061189 268:-0.00673 269:0.00225 270:-0.043423 271:-0.045795 272:0.0764 273:-0.008157 274:0.075667 275:0.039868 276:-0.034046 277:-0.071208 278:-0.04738 279:-0.021133 280:-0.149963 281:-0.021097 282:0.0226 283:0.0241 284:0.021396 285:0.044835 286:0.057801 287:-0.017135 288:-0.020432 289:-0.024542 290:0.04785 291:0.050356 292:-0.01552 293:0.006202 294:0.038342 295:-0.008135 296:0.018459 297:0.035408 298:0.00315 299:-0.055591 300:-0.005862 301:-0.031959 302:-0.030565 303:-0.047271 304:0.024545 305:0.027185 306:-0.051446 307:0.036454 308:0.057163 309:0.008263 310:0.018748 311:-0.001853 312:0.021373 313:0.011727 314:0.012054 315:-0.075355 316:-0.022299 317:-0.020363 318:0.057366 319:0.068314 320:-0.073707 321:-0.064276 322:-0.00158 323:-0.005356 324:-0.000565 325:-0.009484 326:0.002541 327:0.048161 328:0.035049 329:-0.003223 330:-0.047453 331:-0.095787 332:-0.035314 333:-0.030428 334:0.086686 335:0.045825 336:0.063434 337:-0.057458 338:0.011675 339:0.009376 340:-0.073559 341:-0.065578 342:0.025779 343:-0.002106 344:0.015089 345:0.019152 346:0.049812 347:0.026812 348:-0.031752 349:0.081564 350:0.064121 351:0.0313 352:0.032816 353:0.055362 354:0.090721 355:0.018346 356:-0.065666 357:-0.047099 358:-0.079005 359:0.016759 360:0.034708 361:-0.05245 362:0.017563 363:-0.042271 364:-0.028226 365:-0.04496 366:0.019982 367:0.053316 368:0.023928 369:-0.066701 370:0.015522 371:-0.026631 372:0.053099 373:-0.012881 374:-0.008639 375:0.00528 376:0.088622 377:-0.016992 378:0.006946 379:-0.006388 380:0.031074 381:-0.051366 382:-0.007786 383:-0.026013 384:-0.051533 385:-0.05427 386:-0.023598 387:-0.001611 388:0.01095 389:-0.047486 390:-0.034071 391:0.025171 392:-0.043819 393:0.014481 394:-0.049629 395:0.050124 396:-0.053198 397:0.03748 398:-0.043614 399:-0.019847 400:0.018637 401:-0.004268 402:0.085199 403:-0.048055 404:0.013692 405:-0.025309 406:0.043878 407:0.025317 408:-0.012802 409:-0.039465 410:0.048003 411:0.002982 412:0.077407 413:0.03034 414:-0.028402 415:0.001443 416:-0.067754 417:-0.0607 418:0.056408 419:-0.041332 420:-0.006143 421:0.010998 422:-0.113007 423:-0.031751 424:-0.052875 425:0.020818 426:-0.041036 427:-0.082282 428:0.000709 429:0.000152 430:0.025453 431:-0.034748 432:-0.009733 433:-0.019926 434:0.051734 435:0.109002 436:0.0206 437:0.002234 438:-0.007469 439:-0.018955 440:-0.037857 441:0.073762 442:-0.005865 443:-0.000453 444:0.005836 445:-0.027261 446:0.04229 447:-0.059487 448:0.082614 449:0.064786 450:-0.090486 451:-0.005911 452:0.002167 453:0.047199 454:-0.026707 455:0.058171 456:0.004627 457:0.056198 458:-0.050745 459:0.019825 460:-0.013737 461:-0.062535 462:0.095547 463:-0.029811 464:-0.029714 465:0.031045 466:-0.045194 467:-0.011093 468:-0.025269 469:0.093993 470:0.056926 471:-0.017135 472:-0.069262 473:-0.005301 474:-0.028654 475:-0.059968 476:0.011803 477:-0.00212 478:-0.014344 479:-0.038019 480:0.040245 481:-0.078804 482:-0.041299 483:-0.005157 484:-0.040126 485:0.044049 486:0.035252 487:-0.028418 488:0.066079 489:0.019066 490:-0.080096 491:-0.036577 492:0.034111 493:0.076175 494:-0.034379 495:-0.044194 496:-0.00734 497:-0.034543 498:0.046477 499:0.027436 500:0.010861 501:-0.077405 502:-0.050367 503:-0.037683 504:-0.006914 505:9.2e-05 506:0.059895 507:0.020161 508:0.025571 509:0.013965 510:0.042205 511:0.039143 
0.9869106340822249 0.5721168294819449 0 0 0:0.010131 1:-0.010348 2:0.029149 3:0.000973 4:-0.031706 5:0.001171 6:-0.069211 7:0.014948 8:-0.039526 9:-0.048545 10:0.031569 11:-0.038808 12:0.02362 13:0.027688 14:0.067177 15:-0.016602 16:-0.088665 17:0.038537 18:-0.06824 19:0.044954 20:0.022703 21:-0.035039 22:-0.011349 23:-0.038512 24:-0.013124 25:0.024808 26:0.04996 27:0.0032 28:0.011179 29:-0.037597 30:0.063641 31:0.000159 32:-0.029852 33:0.092156 34:-0.054433 35:0.042485 36:0.037571 37:0.069574 38:0.007724 39:-0.005478 40:0.035721 41:-0.012198 42:0.007804 43:0.011937 44:0.081613 45:-0.00167 46:-0.021145 47:-0.053362 48:-0.066865 49:-0.032196 50:0.059284 51:0.028147 52:-0.048684 53:-0.012666 54:-0.114737 55:-0.008232 56:-0.042911 57:-0.045161 58:-0.028326 59:0.033605 60:-0.001772 61:-0.005649 62:-0.045968 63:-0.006899 64:-0.020249 65:0.021315 66:-0.018405 67:0.029091 68:-0.031475 69:0.002156 70:0.026635 71:0.001303 72:-0.011194 73:-0.042105 74:0.058799 75:-0.034092 76:-0.030888 77:0.029221 78:-0.071773 79:-0.077422 80:0.047684 81:0.06744 82:0.081318 83:-0.047902 84:-0.019419 85:0.036709 86:0.040064 87:0.042099 88:-0.010463 89:0.118262 90:-0.02282 91:-0.00567 92:-0.053582 93:-0.002128 94:-0.010348 95:-0.041889 96:0.030044 97:-0.0347 98:-0.047445 99:-0.083496 100:0.023364 101:0.04292 102:0.048719 103:0.031881 104:-0.020911 105:0.00328 106:0.013176 107:-0.029521 108:-0.089701 109:-0.010789 110:-0.024248 111:0.051429 112:-0.000413 113:0.083684 114:0.111141 115:0.045169 116:-0.054165 117:0.007179 118:0.02636 119:0.004989 120:0.035816 121:0.048339 122:-0.022316 123:-0.014117 124:-0.0159 125:-0.064589 126:-0.095888 127:0.07336 128:0.034981 129:-0.074787 130:0.06156 131:0.037782 132:-0.034867 133:0.022957 134:0.084036 135:-0.033485 136:0.046697 137:-0.097484 138:-0.146887 139:0.014444 140:0.027057 141:0.027778 142:-0.044269 143:0.048834 144:0.00994 145:-0.039975 146:0.02988 147:0.046701 148:0.012048 149:-0.034015 150:-0.071454 151:-0.020009 152:-0.020967 153:-0.046653 154:0.055887 155:-0.006949 156:0.01897 157:-0.008242 158:0.026217 159:-0.023524 160:0.007206 161:0.033493 162:-0.023699 163:-0.038126 164:0.061607 165:0.015799 166:-0.081445 167:-0.059612 168:0.016001 169:-0.000533 170:-0.015825 171:0.065601 172:-0.048041 173:0.015564 174:0.030688 175:-0.044317 176:0.028582 177:-0.075131 178:-0.076329 179:0.038323 180:0.067984 181:0.039673 182:0.001888 183:-0.016276 184:0.030786 185:0.000731 186:-0.033089 187:-0.014769 188:0.059231 189:-0.022811 190:0.003621 191:-0.010181 192:0.046982 193:0.024599 194:0.02972 195:-0.027418 196:-0.017404 197:0.020588 198:0.005644 199:0.025782 200:0.015212 201:-0.090949 202:-0.010785 203:0.069769 204:-0.035512 205:0.039733 206:-0.00965 207:0.035187 208:0.032452 209:0.009371 210:0.025031 211:-0.001069 212:-2.4e-05 213:0.025543 214:0.051296 215:-0.075983 216:-0.044091 217:0.071553 218:0.061654 219:-0.024233 220:0.010621 221:-0.005736 222:-0.073269 223:-0.033861 224:0.018435 225:0.015672 226:0.034481 227:0.038352 228:-0.058474 229:-0.003389 230:-0.050604 231:0.042644 232:0.021178 233:0.009322 234:0.035216 235:0.041318 236:-0.027683 237:-0.048474 238:0.009717 239:0.019244 240:-0.042878 241:0.074167 242:0.011413 243:0.050371 244:-0.020896 245:0.029362 246:0.018446 247:0.072732 248:-0.047901 249:0.052078 250:-0.041241 251:0.011538 252:0.001997 253:-0.074597 254:0.030483 255:-0.022251 256:0.050074 257:-0.026503 258:-0.021225 259:0.033045 260:0.015094 261:-0.080152 262:-0.100155 263:0.000694 264:-0.021987 265:0.017463 266:0.04903 267:-0.07071 268:-0.007932 269:0.01861 270:-0.036977 271:0.007604 272:0.04311 273:-0.039535 274:0.101711 275:-0.01668 276:0.008808 277:-0.044376 278:-0.000411 279:0.001239 280:-0.107697 281:-0.053972 282:0.037747 283:-0.020356 284:0.003843 285:0.031142 286:0.072857 287:-0.021883 288:0.019096 289:-0.064718 290:0.054919 291:0.015207 292:-0.016066 293:-0.012253 294:-0.014695 295:-0.007425 296:0.03211 297:0.066409 298:0.014477 299:0.03202 300:0.001152 301:-0.042972 302:-0.031348 303:-0.03268 304:0.027095 305:-0.033682 306:-0.034219 307:0.032703 308:0.035309 309:0.031738 310:0.015602 311:0.026517 312:0.006666 313:0.015641 314:0.021288 315:-0.047778 316:0.014094 317:-0.050374 318:0.025481 319:0.093404 320:-0.000142 321:-0.056135 322:-0.057035 323:-0.01926 324:0.008222 325:-0.051478 326:0.054798 327:0.040907 328:0.061326 329:0.00103 330:-0.027288 331:-0.103049 332:-0.004278 333:0.007284 334:0.035615 335:0.012787 336:-0.005144 337:-0.025364 338:0.014134 339:-0.002449 340:-0.078948 341:-0.049049 342:0.047214 343:0.042314 344:0.037106 345:0.031259 346:0.016688 347:0.037431 348:0.007478 349:0.05542 350:0.007506 351:-0.02802 352:0.028245 353:0.070156 354:0.042992 355:0.009313 356:-0.077407 357:-0.035012 358:-0.077788 359:0.02181 360:0.07503 361:-0.059532 362:-0.024489 363:-0.02424 364:-0.023872 365:-0.085386 366:0.047938 367:0.057226 368:0.030855 369:-0.095564 370:0.068599 371:-0.041425 372:0.046733 373:-0.010199 374:-0.025312 375:-0.039497 376:0.083438 377:-0.03451 378:-0.020638 379:-0.018329 380:-0.00378 381:-0.042344 382:0.012246 383:-0.053537 384:-0.061402 385:-0.077132 386:-0.04567 387:-0.034813 388:0.027154 389:-0.057462 390:-0.040977 391:0.052719 392:-0.0106 393:-0.040283 394:-0.02787 395:0.024339 396:0.004847 397:0.093536 398:-0.035822 399:0.020077 400:0.000794 401:0.042422 402:0.059462 403:-0.031721 404:-0.018883 405:0.006097 406:0.035272 407:0.012026 408:0.014489 409:0.018702 410:0.010535 411:-0.006201 412:0.055964 413:0.065571 414:-0.008488 415:-0.024905 416:-0.077407 417:-0.040421 418:-0.008303 419:-0.074434 420:-0.019154 421:0.049262 422:-0.061443 423:-0.066346 424:-0.092994 425:-0.002909 426:-0.042839 427:-0.104721 428:0.009333 429:-0.028922 430:0.014167 431:-0.015224 432:-0.009922 433:0.000325 434:-0.001252 435:0.045754 436:0.016806 437:0.028094 438:-0.005801 439:-0.008275 440:-0.009854 441:0.080532 442:-0.010623 443:-0.010502 444:-0.01811 445:-0.011747 446:0.00145 447:-0.058543 448:0.098017 449:0.043183 450:-0.066352 451:-0.000693 452:-0.012742 453:0.046546 454:-0.002717 455:0.12395 456:0.020515 457:0.041806 458:-0.015601 459:0.003127 460:0.042092 461:-0.060236 462:0.095678 463:-0.082604 464:0.036703 465:0.019372 466:-0.049477 467:0.017033 468:-0.038271 469:0.092798 470:0.044407 471:0.005324 472:-0.03373 473:-0.020502 474:-0.011619 475:-0.011007 476:0.067049 477:-0.003257 478:0.010599 479:-0.02098 480:0.052398 481:-0.047661 482:-0.053147 483:0.028615 484:0.007617 485:0.036517 486:0.036732 487:-0.059922 488:0.054632 489:0.03815 490:-0.068202 491:-0.000287 492:0.058557 493:0.024487 494:0.007486 495:-0.034041 496:-0.038212 497:-0.04689 498:0.078859 499:0.020136 500:-0.032635 501:-0.05237 502:-0.03132 503:-0.079896 504:0.00127 505:0.021488 506:0.053528 507:-0.010956 508:-0.00595 509:0.0034 510:0.120371 511:0.038791 
0 0 0.02097320479956554 0.1712038260639398 0:0.004082 1:-0.009918 2:0.018924 3:-0.003711 4:-0.066134 5:0.040479 6:-0.005128 7:-0.003042 8:-0.076788 9:-0.024445 10:0.047557 11:0.00179 12:0.075655 13:0.00781 14:0.090586 15:0.00158 16:-0.03982 17:-0.003225 18:-0.056232 19:0.108304 20:0.024564 21:-0.057445 22:-0.025521 23:0.006912 24:0.021596 25:0.065855 26:0.046865 27:0.050135 28:0.013517 29:0.024207 30:0.056874 31:0.000155 32:-0.080352 33:0.026738 34:-0.09006 35:-0.029072 36:0.021885 37:0.065664 38:0.061344 39:-0.046587 40:0.024911 41:0.02496 42:-0.026861 43:-0.011224 44:0.060827 45:-0.025701 46:0.027853 47:-0.067476 48:0.002483 49:-0.036875 50:-0.033672 51:-0.01022 52:-0.081113 53:-0.029126 54:-0.058297 55:0.003064 56:-0.081848 57:-0.019082 58:-0.014256 59:0.089147 60:0.039119 61:0.019094 62:-0.037319 63:0.012014 64:0.016793 65:0.046128 66:0.005264 67:-0.081067 68:-0.035131 69:0.01886 70:-0.010187 71:0.031547 72:0.003843 73:0.011358 74:-0.027396 75:0.055529 76:0.001367 77:-0.02167 78:0.014181 79:-0.086501 80:0.048207 81:0.027657 82:0.051896 83:-0.037355 84:0.046751 85:-0.04074 86:-0.014746 87:0.061752 88:-0.002477 89:0.040175 90:-0.030576 91:-0.038973 92:-0.054087 93:0.065942 94:0.003182 95:-0.076696 96:-0.002239 97:-0.075419 98:0.03344 99:-0.056302 100:-0.030644 101:-0.007903 102:0.026114 103:0.022096 104:0.032275 105:0.015572 106:-0.049747 107:-0.012952 108:-0.050181 109:-0.001123 110:-0.06701 111:0.049218 112:-0.014327 113:0.069549 114:0.090294 115:0.041018 116:-0.081712 117:-0.007846 118:0.00861 119:-0.029219 120:0.054511 121:0.026299 122:0.052562 123:-0.052749 124:0.023503 125:-0.055935 126:-0.074381 127:0.024967 128:0.007394 129:-0.04901 130:0.063308 131:0.02568 132:-0.027063 133:0.039639 134:0.01082 135:-0.066879 136:0.064226 137:-0.044556 138:-0.082906 139:-0.033367 140:0.047265 141:-0.000765 142:0.00185 143:0.050585 144:-0.052882 145:-0.042105 146:0.016586 147:0.007902 148:-0.02211 149:-0.000527 150:-0.096052 151:-0.022463 152:0.040742 153:0.001097 154:0.048067 155:-0.0232 156:0.034141 157:-0.043132 158:-0.023305 159:0.001726 160:0.022121 161:0.035603 162:0.006938 163:-0.055455 164:0.076657 165:0.013163 166:-0.023184 167:-0.071384 168:0.070228 169:-0.021064 170:-0.028753 171:0.07304 172:-0.027591 173:-0.00752 174:-0.015419 175:-0.057504 176:0.041498 177:-0.046731 178:0.0134 179:0.065128 180:0.039365 181:-0.006611 182:0.053465 183:-0.022523 184:-0.015601 185:-0.054191 186:-0.008495 187:-0.020431 188:0.00632 189:-0.068423 190:-0.050406 191:-0.012874 192:0.032436 193:0.001652 194:0.028324 195:0.033762 196:0.046113 197:-0.027534 198:0.056687 199:0.014625 200:0.044416 201:-0.06263 202:-0.007645 203:0.029365 204:-0.031638 205:0.051351 206:-0.057791 207:0.017198 208:-0.004511 209:-0.044057 210:0.012556 211:0.00526 212:-0.00694 213:-0.018901 214:0.061299 215:-0.076772 216:-0.018196 217:0.072011 218:1.8e-05 219:-0.025487 220:-0.018331 221:0.020929 222:-0.039617 223:-0.047422 224:0.034923 225:-0.009248 226:0.070024 227:0.077135 228:-0.031086 229:-0.039608 230:-0.057289 231:0.024524 232:-0.010228 233:-0.025292 234:-0.003514 235:0.087245 236:-0.01107 237:-0.015401 238:-0.046063 239:-0.001723 240:0.004362 241:0.083537 242:-0.003083 243:0.086956 244:8.3e-05 245:0.025066 246:-0.031118 247:0.027876 248:-0.09232 249:0.030941 250:-0.031024 251:0.078788 252:0.010594 253:-0.002538 254:-0.000673 255:-0.008229 256:-0.021697 257:0.007749 258:-0.012029 259:-0.003519 260:0.019852 261:-0.116446 262:-0.076008 263:0.015169 264:-0.006476 265:0.064751 266:0.036868 267:-0.024603 268:0.00593 269:0.0048 270:0.001403 271:-0.03822 272:0.04233 273:0.010837 274:0.053068 275:0.025985 276:-0.029236 277:-0.046588 278:-0.035427 279:-0.012789 280:-0.07403 281:-0.04321 282:-0.031689 283:0.016065 284:0.03124 285:0.02684 286:0.059936 287:-0.022342 288:-0.006904 289:-0.049269 290:0.048396 291:-1.6e-05 292:-0.06045 293:0.053554 294:-0.006317 295:0.027349 296:0.007988 297:0.010927 298:-0.026755 299:0.018831 300:0.058973 301:-0.049306 302:0.018884 303:-0.058701 304:-0.006154 305:0.017588 306:-0.077252 307:0.06761 308:-0.015832 309:0.002445 310:0.065175 311:-0.032384 312:0.025228 313:0.021397 314:-0.042153 315:-0.020441 316:-0.034403 317:-0.030435 318:-0.078597 319:0.062386 320:-0.071745 321:-0.041797 322:-0.087852 323:0.029589 324:-0.009024 325:-0.026474 326:0.038301 327:0.031797 328:0.000363 329:-0.006306 330:0.015043 331:-0.099572 332:-0.022811 333:-0.02803 334:0.074451 335:-0.048015 336:0.024238 337:-0.028302 338:0.026509 339:0.072029 340:-0.01513 341:-0.044963 342:0.000783 343:0.037904 344:0.020775 345:0.009697 346:0.054459 347:-0.013509 348:-0.028936 349:0.06656 350:0.054038 351:0.011138 352:0.051269 353:0.0222 354:0.004453 355:0.101364 356:-0.038343 357:-0.078827 358:-0.018023 359:0.047702 360:0.015558 361:-0.040044 362:-0.005619 363:-0.035137 364:-0.017542 365:0.009529 366:0.045842 367:-0.008062 368:-0.000824 369:0.011891 370:0.042188 371:-0.015912 372:0.104654 373:0.012104 374:0.063606 375:-0.041414 376:0.096891 377:-0.037193 378:0.035963 379:-0.04396 380:0.021846 381:-0.042587 382:0.022859 383:-0.062185 384:-0.007807 385:-0.040622 386:0.042653 387:-0.027127 388:0.009056 389:-0.010212 390:-0.00548 391:0.00203 392:-0.055245 393:-0.057057 394:0.007578 395:0.094119 396:-0.017224 397:0.01727 398:-0.090147 399:0.008027 400:-0.038813 401:0.067632 402:0.1017 403:0.00118 404:-0.096955 405:0.007286 406:0.057699 407:0.033702 408:0.008391 409:0.010684 410:0.041806 411:-0.044004 412:0.069771 413:0.007752 414:-0.020687 415:0.034318 416:-0.066513 417:-0.014087 418:0.022125 419:-0.058865 420:-0.003326 421:0.016817 422:-0.061169 423:-0.032316 424:-0.025824 425:-0.019201 426:-0.056837 427:-0.063605 428:0.04457 429:0.036412 430:0.045573 431:-0.012028 432:0.019583 433:0.040168 434:-0.022957 435:0.08326 436:-0.018267 437:0.048269 438:0.032729 439:0.031975 440:-0.028112 441:0.075176 442:-0.032834 443:-0.024623 444:0.025214 445:-0.0243 446:0.036668 447:-0.028794 448:0.065277 449:0.086022 450:-0.009179 451:-0.086394 452:0.033091 453:-0.000557 454:0.056107 455:0.070746 456:0.072749 457:6.3e-05 458:-0.069095 459:-0.037577 460:0.014243 461:-0.064421 462:0.08209 463:-0.04511 464:0.029012 465:0.010999 466:-0.033029 467:0.024424 468:-0.038013 469:0.021166 470:-0.021548 471:0.006064 472:-0.00674 473:-0.015074 474:0.005875 475:-0.036098 476:0.010289 477:0.01142 478:-0.046884 479:-0.016439 480:0.066158 481:-0.034073 482:-0.047478 483:0.053602 484:0.040896 485:0.048411 486:0.007715 487:-0.060133 488:0.051469 489:0.106838 490:-0.056506 491:0.025375 492:-0.016481 493:0.065017 494:-0.031595 495:-0.068043 496:-5.9e-05 497:-0.082929 498:0.023239 499:0.001874 500:0.011548 501:-0.029322 502:-0.065202 503:-0.079159 504:-0.070483 505:-0.056571 506:0.045181 507:0.049234 508:0.037538 509:0.087329 510:0.086377 511:0.050418 
0 0 0.7041081899610855 0 0:0.013882 1:-0.049392 2:0.023224 3:-0.017632 4:-0.064502 5:0.055353 6:-0.021548 7:-0.062995 8:-0.052509 9:0.012209 10:0.049305 11:-0.01347 12:0.038326 13:0.002244 14:0.070623 15:-0.01179 16:-0.019104 17:0.03205 18:-0.016514 19:0.063211 20:-0.013344 21:-5.7e-05 22:-0.023468 23:-0.020188 24:-0.022091 25:-0.014204 26:-0.042314 27:0.03209 28:-0.011647 29:-0.025772 30:0.04191 31:0.039089 32:-0.018583 33:0.07824 34:-0.10977 35:-0.01609 36:0.002563 37:0.055083 38:0.07145 39:-0.046659 40:0.024492 41:-0.019281 42:0.022102 43:0.010635 44:0.097951 45:0.046884 46:0.008904 47:-0.124999 48:-0.020898 49:-0.030823 50:0.05173 51:0.000782 52:-0.018249 53:0.057417 54:-0.054605 55:-0.05046 56:-0.021327 57:-0.016444 58:-0.01956 59:0.076937 60:0.014904 61:-0.00423 62:-0.036325 63:0.018245 64:-0.031487 65:0.050386 66:-0.007193 67:-0.00975 68:-0.075601 69:0.064944 70:-0.004723 71:-0.023048 72:0.052041 73:0.033169 74:-0.009991 75:0.008637 76:-0.04852 77:0.057335 78:-0.038087 79:-0.085729 80:0.05232 81:0.071788 82:-0.018535 83:-0.055023 84:0.025854 85:0.003666 86:-0.041486 87:0.007192 88:-0.04046 89:0.076475 90:0.004705 91:0.003616 92:-0.021666 93:0.065851 94:-0.005782 95:-0.02148 96:0.010482 97:0.032121 98:0.004482 99:-0.06573 100:-0.010684 101:0.04721 102:0.029241 103:-0.047471 104:0.03651 105:-0.034302 106:-0.034663 107:-0.042474 108:-0.138612 109:0.01123 110:-0.070014 111:0.020514 112:-0.023981 113:0.029239 114:0.096989 115:0.090305 116:-0.034865 117:-0.022433 118:0.023009 119:0.002959 120:-0.001803 121:0.0463 122:0.035175 123:-0.033304 124:0.034842 125:-0.026434 126:-0.020635 127:0.007581 128:0.036373 129:-0.056689 130:0.029156 131:0.048476 132:-0.057476 133:0.063 134:0.003306 135:-0.067665 136:0.027002 137:-0.067664 138:-0.095918 139:-0.040841 140:-0.00166 141:-0.004579 142:0.004433 143:0.033685 144:-0.050718 145:-0.079322 146:0.017062 147:0.013431 148:-0.022347 149:-0.01273 150:-0.045678 151:-0.013975 152:-0.037313 153:-0.008101 154:0.082924 155:0.004966 156:-0.061429 157:-0.018813 158:0.036359 159:-0.025403 160:0.009968 161:0.037856 162:0.011808 163:-0.053762 164:0.039005 165:-0.031593 166:-0.052684 167:-0.050394 168:0.092767 169:0.042623 170:-0.076782 171:0.074928 172:-0.015553 173:-0.012253 174:-0.008128 175:-0.015809 176:0.072935 177:0.018569 178:0.015247 179:-0.027618 180:0.030079 181:0.019275 182:0.015737 183:-0.029599 184:-0.003294 185:-0.038421 186:0.065544 187:-0.012021 188:0.044831 189:-0.0068 190:0.022473 191:-0.027424 192:0.064109 193:0.069956 194:0.00395 195:-0.038151 196:0.0037 197:-0.019338 198:0.026267 199:-0.022896 200:0.097612 201:-0.026882 202:0.046764 203:0.04989 204:-0.063792 205:0.047569 206:-0.013002 207:0.018182 208:0.055219 209:0.023555 210:0.002554 211:0.039711 212:-0.049661 213:0.010163 214:0.072175 215:-0.09588 216:0.021249 217:0.020436 218:0.001749 219:0.001736 220:0.016595 221:0.027948 222:0.000756 223:-0.043239 224:0.022325 225:-0.081769 226:0.090142 227:0.108416 228:-0.039081 229:0.036081 230:-0.007457 231:-0.004377 232:0.014759 233:0.042755 234:-0.013221 235:0.01994 236:-0.030394 237:-0.050478 238:0.003964 239:0.036747 240:0.000845 241:0.087994 242:-0.014757 243:0.097243 244:-0.054696 245:-0.022968 246:-0.02044 247:0.018182 248:-0.073874 249:0.068848 250:-0.019516 251:0.045043 252:0.024155 253:-0.050394 254:-0.005441 255:0.012429 256:-0.012713 257:-0.043029 258:-0.012692 259:0.027904 260:-0.049999 261:-0.086935 262:-0.084267 263:0.020532 264:-0.022642 265:0.04749 266:0.044714 267:-0.039429 268:-0.001697 269:-0.008916 270:-0.003816 271:-0.031477 272:0.040887 273:0.034469 274:0.076053 275:0.025062 276:-0.013744 277:-0.003519 278:-0.017936 279:-0.005285 280:-0.095172 281:0.042445 282:-0.002586 283:-0.035318 284:0.03666 285:0.04844 286:0.032983 287:-0.027793 288:-0.022668 289:-0.058409 290:0.051782 291:0.086717 292:-0.022825 293:0.022221 294:0.020836 295:-0.004747 296:0.061328 297:0.045909 298:-0.02101 299:-0.021371 300:0.043655 301:0.003722 302:-0.022793 303:-0.021558 304:0.03052 305:0.024751 306:-0.064502 307:0.034404 308:0.060276 309:-0.021419 310:0.025548 311:0.007724 312:0.043523 313:0.064435 314:0.012148 315:-0.10728 316:-0.036245 317:-0.045966 318:0.030243 319:0.087238 320:-0.03743 321:-0.048262 322:-0.049999 323:0.00345 324:0.02529 325:-0.039585 326:0.01702 327:-0.014792 328:-0.023418 329:-0.013077 330:-0.068038 331:-0.087623 332:-0.016851 333:-0.034149 334:0.028894 335:0.005921 336:0.030493 337:-0.087075 338:0.039165 339:0.037901 340:-0.046368 341:-0.045429 342:0.045962 343:-0.024292 344:0.042453 345:-0.022995 346:0.025618 347:-0.043877 348:-0.010503 349:0.117171 350:0.076734 351:0.027531 352:-0.048117 353:0.077361 354:0.038372 355:0.065404 356:-0.018876 357:-0.047665 358:-0.060555 359:0.026328 360:0.03368 361:-0.121829 362:0.020414 363:0.006689 364:-0.011746 365:-0.024062 366:0.013609 367:0.043818 368:-0.017403 369:-0.060418 370:0.026816 371:-0.026041 372:0.004956 373:0.002073 374:0.066996 375:0.022531 376:0.06732 377:-0.058501 378:0.016558 379:-0.009146 380:0.031088 381:-0.060937 382:0.011844 383:-0.040545 384:-0.067044 385:-0.054887 386:-0.029859 387:0.001993 388:0.013027 389:-0.036237 390:0.011093 391:0.008442 392:0.021901 393:-0.002566 394:-0.003322 395:0.065854 396:-0.029298 397:0.026851 398:-0.035184 399:0.033535 400:-0.028454 401:0.005981 402:0.103399 403:-0.055119 404:-0.016385 405:-0.048632 406:0.068308 407:0.065161 408:0.014041 409:-0.034482 410:0.075063 411:0.000564 412:0.07211 413:0.003001 414:-0.019726 415:0.013447 416:-0.091047 417:-0.021648 418:0.030492 419:-0.068062 420:-0.068132 421:0.008342 422:-0.063723 423:-0.024193 424:-0.067534 425:0.017288 426:-0.021443 427:-0.063417 428:0.002443 429:-0.002817 430:0.035691 431:0.032146 432:0.008367 433:-0.019241 434:0.058438 435:0.088488 436:0.022939 437:-0.021498 438:0.010489 439:-0.038266 440:-0.027804 441:0.051132 442:0.003491 443:-0.046107 444:-0.020712 445:-0.040257 446:0.02478 447:-0.011463 448:0.063768 449:0.021073 450:-0.070681 451:-0.037834 452:-0.030497 453:0.005818 454:-0.050237 455:0.080239 456:0.042767 457:0.036909 458:-0.043103 459:0.007665 460:-0.058669 461:-0.090107 462:0.07984 463:-0.014107 464:-0.005848 465:0.009176 466:-0.078291 467:0.000219 468:-0.049432 469:0.071892 470:0.028766 471:-0.049163 472:-0.058682 473:0.001349 474:-0.033985 475:-0.057069 476:0.058359 477:0.002637 478:0.017297 479:0.007256 480:0.068638 481:-0.081374 482:-0.065953 483:0.006189 484:0.005476 485:-0.028642 486:-0.002511 487:-0.031144 488:0.057242 489:0.046227 490:-0.094955 491:-0.026037 492:0.04325 493:0.02615 494:-0.040084 495:-0.03935 496:0.004501 497:-0.04239 498:0.042323 499:0.044671 500:-0.007762 501:-0.03682 502:-0.031747 503:-0.004091 504:-0.030967 505:0.001014 506:0.055696 507:-0.019515 508:0.039666 509:0.005837 510:0.010589 511:0.033754 
-0 0.07656836527260656 0 0 0:0.083741 1:0.007147 2:0.099985 3:-5.9e-05 4:-0.052333 5:0.016569 6:-0.062645 7:-0.01115 8:-0.04229 9:-0.073788 10:0.029369 11:-0.06242 12:0.000533 13:0.014698 14:-0.015845 15:0.00708 16:-0.018098 17:0.077531 18:-0.053969 19:-0.013149 20:0.093358 21:-0.07034 22:0.014441 23:0.002044 24:-0.015198 25:-0.017014 26:-0.011993 27:0.024195 28:-0.037256 29:0.017317 30:0.032402 31:-0.058691 32:-0.05509 33:0.020132 34:0.021695 35:0.033877 36:0.030155 37:-0.021271 38:-0.033454 39:-0.027599 40:0.009749 41:0.053358 42:-0.00242 43:0.014729 44:0.03841 45:0.046263 46:-0.050545 47:-0.017228 48:0.008334 49:0.009671 50:0.046607 51:-0.007716 52:-0.055188 53:0.014996 54:0.02112 55:-0.029134 56:0.054675 57:-0.086128 58:0.01326 59:0.067287 60:-0.010975 61:0.017131 62:0.018737 63:0.021787 64:0.039341 65:-0.008195 66:0.01544 67:0.056901 68:0.062729 69:-0.011779 70:-0.024846 71:0.085365 72:-0.018263 73:-0.044106 74:0.119247 75:-0.058145 76:-0.025792 77:0.054034 78:-0.016397 79:-0.005775 80:-0.017916 81:-0.092602 82:0.094454 83:-0.004077 84:-0.033318 85:0.015177 86:0.047726 87:0.015125 88:0.062845 89:0.076994 90:-0.012451 91:0.00453 92:-0.06536 93:0.034657 94:-0.067322 95:-0.027991 96:0.038287 97:-0.037893 98:0.005196 99:0.027801 100:0.048411 101:-0.025534 102:-0.042544 103:0.076032 104:-0.024325 105:0.024952 106:0.023198 107:-0.033928 108:-0.031273 109:0.046009 110:-0.002014 111:0.066581 112:0.06919 113:0.061408 114:-0.008801 115:-0.036405 116:-0.065283 117:-0.071027 118:0.015951 119:0.043512 120:0.061483 121:0.04271 122:-0.08487 123:-0.033218 124:0.038687 125:0.026504 126:-0.069193 127:0.058233 128:0.056653 129:0.004977 130:0.029167 131:-0.006301 132:-0.065598 133:0.068873 134:0.094941 135:0.067354 136:-0.006405 137:-0.029252 138:-0.090504 139:-0.000862 140:0.039785 141:0.028004 142:-0.001976 143:-0.024534 144:0.022418 145:-0.029473 146:0.053264 147:0.016872 148:0.002034 149:0.029252 150:-0.053427 151:-0.090763 152:-0.011812 153:-0.024803 154:-0.009666 155:-0.022257 156:-0.033228 157:0.0038 158:-0.064022 159:-0.029941 160:-0.037838 161:-0.045782 162:-0.119742 163:0.041731 164:0.020508 165:0.055745 166:-0.003227 167:-0.001983 168:-0.069874 169:-0.066859 170:0.051049 171:0.014558 172:-0.012411 173:0.062412 174:0.065272 175:-0.010142 176:0.044288 177:0.027423 178:-0.101409 179:0.012792 180:0.040816 181:0.014019 182:0.055097 183:-0.059497 184:0.013208 185:-0.00824 186:-0.014596 187:-0.05764 188:0.034597 189:-0.063324 190:-0.023252 191:0.027206 192:0.043737 193:-0.031202 194:-0.035496 195:-0.016664 196:-0.074196 197:0.044624 198:-7.1e-05 199:-0.004347 200:-0.024144 201:0.057455 202:-0.014622 203:0.050624 204:0.021551 205:-0.034713 206:-0.052421 207:0.044909 208:0.024793 209:-0.000394 210:0.043477 211:-0.000158 212:0.080723 213:0.030166 214:-0.012678 215:-0.006531 216:0.000639 217:0.015084 218:0.070239 219:0.043973 220:0.047746 221:-0.023849 222:-0.053145 223:0.014783 224:-0.020059 225:0.041127 226:-0.067928 227:-0.026025 228:-0.035007 229:-0.04835 230:0.038745 231:0.07031 232:-0.047473 233:-0.024305 234:0.132978 235:-0.022926 236:-0.047183 237:0.0576 238:0.018142 239:0.037673 240:-0.017398 241:0.048799 242:0.059861 243:0.060837 244:0.008448 245:0.031726 246:0.080363 247:0.067203 248:0.036251 249:-0.01088 250:-0.021918 251:-0.068274 252:0.005304 253:-0.055882 254:0.004172 255:-0.05436 256:-0.015126 257:0.01009 258:-0.002971 259:0.026417 260:-0.013347 261:-0.024277 262:-0.004921 263:-0.021562 264:-0.000496 265:-0.05293 266:-0.038678 267:-0.014411 268:-0.02515 269:-0.008781 270:0.045476 271:0.010769 272:0.07572 273:-0.065277 274:0.0449 275:-0.036639 276:0.028557 277:-0.065644 278:-0.021844 279:-0.049242 280:-0.051342 281:-0.077106 282:-0.014582 283:-0.003148 284:-0.029837 285:0.003887 286:-0.00576 287:-0.050894 288:-0.002128 289:0.021039 290:-0.019723 291:-0.03579 292:-0.070234 293:0.014018 294:0.058799 295:0.010298 296:-0.016816 297:0.009745 298:-0.06972 299:-0.053327 300:0.030503 301:-0.04594 302:0.046791 303:0.023994 304:0.037532 305:0.04092 306:0.031144 307:0.02135 308:0.063303 309:0.04091 310:0.000763 311:-0.004095 312:-0.004103 313:0.054116 314:0.089252 315:-0.054763 316:-0.037074 317:-0.068535 318:-0.025094 319:0.039635 320:-0.003095 321:-0.056361 322:0.003789 323:-0.029162 324:0.000352 325:-0.025569 326:0.028831 327:0.007159 328:0.028448 329:-0.025567 330:-0.005679 331:-0.076202 332:-0.030454 333:-0.020424 334:0.062834 335:0.04086 336:0.022513 337:0.050717 338:-0.068923 339:0.009268 340:-0.074974 341:-0.019841 342:0.023271 343:0.037304 344:0.001031 345:0.066287 346:0.024823 347:0.06498 348:0.013409 349:-0.030935 350:0.0077 351:-0.04276 352:0.09118 353:0.07459 354:-0.031587 355:0.002417 356:-0.04583 357:0.023427 358:-0.059124 359:0.000161 360:0.004448 361:0.02902 362:-0.026643 363:-0.008274 364:-0.045615 365:-0.017799 366:-0.006745 367:0.000349 368:-0.033304 369:0.022252 370:0.030939 371:-0.01198 372:0.013873 373:0.012925 374:-0.101945 375:-0.027265 376:0.084294 377:-0.054763 378:-0.023882 379:0.077256 380:0.035517 381:0.006168 382:-0.006988 383:0.023024 384:-0.004749 385:0.032825 386:-0.022669 387:-0.042761 388:-0.035032 389:0.010724 390:-0.041096 391:0.04353 392:-0.044146 393:0.045871 394:-0.033651 395:0.02345 396:0.009795 397:0.034367 398:0.005877 399:-0.029066 400:0.046366 401:0.038558 402:0.033084 403:0.007755 404:0.042159 405:-0.069723 406:-0.013141 407:-0.014089 408:0.008175 409:0.117209 410:-0.001505 411:0.024542 412:0.012894 413:0.119106 414:0.018596 415:-0.153579 416:-0.007777 417:-0.022491 418:0.083989 419:0.008998 420:-0.073949 421:0.03655 422:-0.078632 423:-0.137047 424:0.054393 425:0.053236 426:-0.000259 427:-0.06294 428:-0.020971 429:-0.005119 430:0.023788 431:0.014737 432:-0.01627 433:-0.037112 434:0.005648 435:0.081949 436:0.055729 437:0.104526 438:0.016471 439:-0.022339 440:-0.002599 441:0.019921 442:-0.001185 443:-0.042998 444:0.033108 445:-0.031481 446:-0.008977 447:-0.002019 448:0.005645 449:-0.002271 450:-0.029797 451:-0.041281 452:0.028483 453:0.065911 454:-0.029741 455:0.013802 456:0.005125 457:0.01303 458:-0.000381 459:0.01831 460:-0.002946 461:0.010037 462:0.050981 463:-0.041641 464:0.0189 465:0.012905 466:0.030729 467:-0.037724 468:-0.019472 469:0.006899 470:0.084106 471:-0.013437 472:0.030068 473:-0.022794 474:-0.03405 475:-0.058818 476:0.031242 477:-0.04053 478:-0.017793 479:-0.018306 480:0.004546 481:0.025114 482:0.06504 483:0.044127 484:-0.0758 485:0.079773 486:0.018603 487:-0.050942 488:0.011138 489:0.027566 490:-0.077553 491:-0.010988 492:0.035537 493:0.038676 494:0.043835 495:0.023995 496:-0.05768 497:0.051962 498:0.019309 499:0.043877 500:-0.006273 501:-0.062172 502:0.047029 503:-0.102669 504:0.027585 505:0.020319 506:0.015011 507:0.081218 508:-0.006056 509:-0.032172 510:0.02396 511:-0.055398 
-0 0.07111387884006262 0.8827495906536151 0.1994346842613795 0:0.088835 1:0.029125 2:0.012594 3:-0.102871 4:-0.033947 5:0.01861 6:-0.008462 7:0.071192 8:-0.057103 9:-0.024995 10:-0.035845 11:0.025184 12:0.026129 13:0.017828 14:-0.045656 15:-0.070048 16:0.002034 17:0.027189 18:-0.067934 19:-0.02402 20:-0.010862 21:-0.087264 22:-0.008601 23:-0.014069 24:0.011612 25:-0.035783 26:0.023556 27:-0.008435 28:-0.006077 29:-0.027666 30:0.068614 31:-0.090784 32:-0.02523 33:0.069627 34:0.032587 35:0.022247 36:-0.072069 37:0.019395 38:-0.055645 39:0.024459 40:-0.024337 41:0.013312 42:0.002328 43:0.008083 44:0.001442 45:0.03672 46:-0.069607 47:-0.0172 48:0.012706 49:-0.097935 50:-0.057692 51:0.025181 52:0.006741 53:0.049437 54:-0.000322 55:0.036905 56:-0.009105 57:-0.028049 58:0.017481 59:0.013508 60:-0.022137 61:-0.008279 62:0.059362 63:0.064501 64:0.057982 65:-0.061661 66:0.007729 67:-0.013335 68:0.057688 69:0.022074 70:-0.054417 71:-0.065711 72:0.000814 73:-0.056348 74:0.037181 75:-0.030033 76:-0.05709 77:-0.037164 78:0.061634 79:-0.013687 80:-0.052914 81:0.013782 82:0.054225 83:0.036465 84:-0.065721 85:0.048776 86:0.011803 87:-0.007926 88:0.069292 89:-0.002188 90:-0.048863 91:-0.002863 92:-0.050147 93:-0.060334 94:-0.046943 95:-0.040712 96:-0.04602 97:0.000392 98:0.031989 99:-0.054595 100:0.066757 101:0.019948 102:-0.020146 103:0.047238 104:-0.00207 105:0.03716 106:0.006933 107:-0.013809 108:-0.010891 109:-0.054666 110:-0.083485 111:0.07245 112:-0.013216 113:0.016802 114:0.048524 115:0.012528 116:-0.038169 117:-0.028755 118:-0.039258 119:-0.08982 120:-0.040816 121:0.00276 122:-0.045755 123:-0.026816 124:-0.003536 125:0.013823 126:-0.069889 127:0.016027 128:-0.006746 129:0.049664 130:-0.089735 131:0.037072 132:-0.019206 133:-0.003105 134:0.099367 135:-0.039636 136:0.003728 137:-0.020543 138:-0.049637 139:-0.032505 140:0.055149 141:0.015134 142:0.018293 143:-0.00068 144:-0.033126 145:-0.037834 146:0.013163 147:0.041947 148:-0.003166 149:0.083953 150:0.001902 151:-0.066961 152:0.012913 153:0.084709 154:-0.021284 155:0.000275 156:0.009944 157:-0.088503 158:-0.031898 159:-0.071852 160:-0.004744 161:0.063245 162:-0.039016 163:-0.008248 164:0.026847 165:0.073758 166:-0.024008 167:0.056058 168:-0.042852 169:0.029193 170:0.0411 171:-0.018759 172:-0.046361 173:0.045446 174:-0.036238 175:-0.006265 176:-0.009594 177:-0.004321 178:-0.057304 179:-0.008019 180:0.012349 181:0.003043 182:0.070407 183:-0.024128 184:0.08598 185:0.001361 186:-0.019157 187:-0.057439 188:0.040743 189:-0.094103 190:0.004688 191:0.063048 192:-0.046664 193:-0.096676 194:-0.017565 195:-0.043967 196:0.018785 197:-0.055566 198:0.079384 199:-0.040785 200:-0.042444 201:0.033792 202:-0.008488 203:0.003835 204:0.044997 205:-0.012719 206:-0.079492 207:0.020724 208:0.045964 209:0.021943 210:-0.023149 211:0.012143 212:-0.018042 213:-0.009914 214:0.002071 215:-0.047509 216:-0.003678 217:0.06388 218:0.026957 219:0.042325 220:-0.031449 221:0.036484 222:-0.007822 223:0.029922 224:0.043506 225:-0.004375 226:-0.018441 227:0.010226 228:-0.043515 229:-0.076926 230:-0.004331 231:0.047293 232:0.01579 233:-0.045266 234:0.109352 235:-0.077407 236:0.019762 237:-0.007108 238:0.049104 239:-0.04832 240:0.057015 241:-0.020771 242:0.032206 243:0.008302 244:-0.03204 245:-0.016058 246:0.051285 247:-0.050286 248:-0.046886 249:-0.005413 250:0.05303 251:0.017661 252:0.068811 253:0.061245 254:0.004412 255:-0.037171 256:0.044289 257:0.097722 258:-0.048497 259:0.03859 260:0.094073 261:-0.012212 262:-0.008012 263:-0.051513 264:-0.034071 265:-0.050498 266:0.064881 267:0.019405 268:-0.02277 269:0.003493 270:0.037647 271:-0.033591 272:0.005946 273:-0.07459 274:0.00205 275:-0.013119 276:0.036298 277:-0.056039 278:0.053515 279:-0.002081 280:-0.023641 281:-0.039729 282:-0.038979 283:0.016398 284:-0.054117 285:0.046138 286:0.015945 287:0.002073 288:0.02387 289:0.016582 290:0.009076 291:0.022554 292:0.01264 293:-0.015526 294:0.119327 295:0.015713 296:0.014706 297:0.03255 298:0.006889 299:-0.010999 300:0.068569 301:-0.042102 302:-0.022241 303:-0.044728 304:0.004885 305:-0.027798 306:0.056068 307:-0.061668 308:0.019989 309:0.0564 310:-0.060545 311:-0.114414 312:-0.037863 313:0.036198 314:0.048858 315:-0.057107 316:-0.008077 317:-0.051891 318:0.004949 319:0.00571 320:-0.031048 321:-0.025247 322:0.01324 323:-0.051781 324:-0.079929 325:-0.006298 326:0.000478 327:-0.018992 328:-0.008223 329:-0.006636 330:0.024973 331:-0.015786 332:-0.03157 333:-0.054114 334:0.077219 335:0.009153 336:0.033352 337:0.057118 338:-0.048763 339:0.040505 340:-0.095283 341:-0.043672 342:0.029685 343:-0.029338 344:-0.065842 345:0.060523 346:0.003697 347:0.018224 348:0.063731 349:0.044014 350:0.014573 351:0.00349 352:0.088645 353:-0.010697 354:-0.036922 355:-0.033842 356:-0.024953 357:0.029711 358:-0.056735 359:-0.007718 360:-0.016014 361:-0.020102 362:-0.009262 363:0.017357 364:0.013513 365:0.017483 366:0.101222 367:0.113993 368:0.05067 369:0.045608 370:0.017936 371:0.002722 372:0.090783 373:0.017996 374:-0.073549 375:-0.01742 376:0.048594 377:-0.025841 378:0.006373 379:0.021271 380:0.027337 381:0.006607 382:-0.075427 383:-0.047332 384:-0.001916 385:0.024773 386:0.044485 387:-0.053983 388:0.013654 389:0.044054 390:-0.050378 391:0.077747 392:-0.063026 393:0.111023 394:-0.049284 395:0.078106 396:-0.027361 397:0.008194 398:-0.004675 399:0.004615 400:0.038762 401:0.019756 402:0.05237 403:0.027192 404:0.030397 405:0.043484 406:-0.004472 407:0.013391 408:-0.029414 409:0.056382 410:-0.017474 411:0.08934 412:-0.008062 413:0.069751 414:-0.057229 415:-0.080269 416:0.006821 417:-0.05644 418:0.002068 419:0.039605 420:-0.026442 421:0.076366 422:-0.064559 423:-0.016977 424:0.052386 425:0.027652 426:-0.004389 427:-0.064741 428:0.043969 429:-0.006076 430:0.014098 431:0.0066 432:0.005792 433:-0.013271 434:0.004776 435:0.042362 436:-0.06143 437:0.035028 438:0.071315 439:0.063253 440:-0.015361 441:-0.003817 442:0.027862 443:-0.014696 444:0.056256 445:0.039934 446:-0.033932 447:-0.035547 448:-0.030946 449:-0.030686 450:-0.014631 451:0.012026 452:0.076311 453:-0.021245 454:-0.046583 455:0.032795 456:-0.042276 457:0.031165 458:-0.01022 459:-0.062226 460:-0.007556 461:0.068193 462:0.13475 463:-0.02163 464:-0.043838 465:-0.000857 466:0.037174 467:0.02066 468:-0.07429 469:0.021449 470:-0.016889 471:-0.013661 472:0.03258 473:0.031821 474:0.014355 475:0.037711 476:0.013432 477:-0.029579 478:-0.032278 479:-0.083319 480:0.054206 481:-0.020486 482:0.007022 483:-0.041704 484:0.041575 485:0.038428 486:-0.042163 487:-0.036172 488:0.028443 489:0.020404 490:-0.115642 491:-0.065514 492:0.035254 493:0.06581 494:-0.033278 495:-0.044526 496:-0.044943 497:0.023859 498:-0.000364 499:0.051217 500:-0.001227 501:-0.04042 502:-0.029686 503:-0.051642 504:-0.042982 505:0.004994 506:0.008357 507:0.079889 508:-0.013108 509:-0.074427 510:0.000655 511:0.03589 
